673 256
32 0.105057426 -0.44094032 0.0020959529 0.34659356 -0.21992007 -0.1419009 0.12211951 -0.32326353 0.08750565 -0.049302984 0.07328905 0.021892697 0.21575393 -0.24147159 0.14516474 -0.123588964 0.0386718 0.18829969 0.024584811 0.20810232 -0.14882927 0.29347777 0.14080796 0.16349712 -0.23893587 -0.101493254 -0.047249336 -0.25808483 -0.07768506 0.02961747 -0.09638042 -0.0488346 0.06253389 0.008550871 -0.12317459 0.107701205 0.011670018 0.122464634 -0.055288784 -0.056899525 -0.05782276 0.18446663 -0.11075407 0.16977279 0.19946697 0.2930529 -0.08893128 -0.014508323 0.16231568 -0.122431904 -0.17384161 -0.06328805 -0.23990196 0.06632308 0.022057334 -0.2533264 -0.1045374 0.21932745 0.021741692 0.13056158 0.011622693 -0.39173576 -0.045633227 -0.07958114 -0.12547365 0.117965735 0.041281186 0.08853908 0.01788318 0.10615352 -0.16016597 0.2026407 0.06693661 -0.018956622 0.00040574023 -0.11069898 -0.11213882 0.43164852 0.03479502 -0.07996667 -0.009078927 -0.19908677 0.05462802 -0.24151133 0.13196605 0.15910055 -0.13169469 -0.19985542 0.02743927 -0.2578197 -0.107033685 -0.07157553 0.00988544 -0.22018373 0.086601906 0.27596936 -0.12864819 0.023219535 0.013181216 -0.08695961 0.40682018 0.024527937 0.08853473 -0.18154229 0.14053635 0.17506683 0.054639686 -0.22170325 0.15665935 -0.13312384 0.003921439 -0.08905022 -0.009724999 0.21095097 0.16293776 0.124149665 -0.22917677 -0.04845783 -0.11696421 0.12517408 0.31377167 -0.11154537 -0.014905108 -0.21587639 0.12060492 -0.15262328 0.22131696 0.27141938 0.12554839 0.23115006 0.21812956 -0.30485496 0.1337324 -0.025389016 -0.085586786 0.01610425 -0.013388484 0.31579348 0.15010925 -0.103414096 0.19863214 0.027982425 -0.16757976 0.034569353 -0.1539214 -0.03422021 -0.4102454 -0.034489624 0.15405564 0.28450775 0.06981535 -0.021985693 0.22592497 0.12464074 -0.14200574 -0.40920538 -0.0070099114 0.25640205 -0.09392633 0.09493571 0.12185761 0.1078385 0.28763345 -0.24295984 -0.2356061 0.14186944 -0.07262815 -0.2260763 0.0935521 0.09365182 0.1334317 0.2485995 -0.2688176 0.03865693 0.12776807 0.08767477 0.058261964 -0.045389768 0.051749777 0.14003186 -0.1851244 0.2085868 -0.34247187 -0.10550996 0.123449095 -0.23061398 -0.17885129 0.47811353 -0.035414066 -0.05662464 -0.20724991 0.14727364 -0.1301393 -0.2354698 -0.56254613 -0.26180708 -0.13441837 0.23952408 0.105607055 -0.14223665 0.081515886 -0.4062499 -0.24633656 -0.19120711 0.029910706 0.02397976 -0.2608642 0.016592264 -0.14155304 0.20914271 0.114821896 -0.09986605 -0.11001365 0.24456754 0.017135417 -0.12181404 0.024836512 -0.056149725 -0.11911422 0.31333995 0.07795556 0.005632068 -0.12238251 0.044990055 -0.111977786 0.17422195 0.10947362 -0.063086 0.115176365 0.21649887 -0.17121084 -0.04180962 -0.056781888 -0.09436944 0.05777143 -0.022363523 0.08919375 -0.0014255837 -0.4505471 0.12314484 0.22852513 0.17706317 -0.37766358 -0.033567768 -0.17405407 -0.25915104 0.15159285 0.12827627 -0.20741197 -0.0787338 0.4922893 -0.18921155 -0.13737553 -0.044816483 -0.17855209 0.37111688
11 -0.17171901 -0.24137203 -0.013090495 0.20761794 0.08142113 0.049577404 -0.37822 -0.26482815 0.3526284 -0.18530233 -0.14803804 0.15106536 -0.115401566 -0.024813183 0.08780631 -0.4315702 -0.24240787 0.1677786 0.11408214 0.0090777995 -0.11108984 0.22059695 0.16437398 0.12459906 -0.14784032 0.023399089 0.33205724 -0.218519 -0.010131406 -0.093598075 -0.108033 -0.16399956 0.04817933 -0.14941745 0.07379612 0.047201388 0.052849457 -0.09168174 0.18556611 0.1294567 0.18026063 0.16010733 0.18612206 0.00956179 -0.017357247 -0.03725682 -0.17422262 0.36689416 -0.15056702 0.12752947 -0.14580497 0.104521334 -0.3019343 0.057756286 0.041209385 -0.23916914 -0.078364916 0.123480126 -0.066906445 0.04602041 -0.20427741 -0.20822462 0.21605499 0.19392143 -0.14959536 -0.024839789 -0.06911642 -0.12657829 0.15264398 -0.0682597 -0.011419723 0.32526514 -0.28478444 0.10771798 0.33589005 -0.057631455 -0.14774276 0.12602031 -0.10170604 -0.21347691 -0.046037145 0.18753919 -0.09371984 -0.2523369 -0.12363268 0.16226715 0.040207088 -0.055486932 -0.09675451 0.05387013 -0.087289274 -0.11448418 -0.0016367473 0.03157205 0.092926614 0.08972025 -0.118229106 -0.09858692 -0.0053325635 -0.12717435 0.15341064 0.1805481 -0.1664382 0.25903833 0.12677154 -0.0032528685 0.14722449 -0.21476305 0.20974748 -0.568062 0.29599592 0.114874914 -0.13742565 -0.055622067 0.15028082 -0.13597122 -0.36458236 0.093669176 -0.13095239 -0.08721471 0.16634256 -0.1306338 -0.07302699 -0.26893637 0.28189653 -0.10393402 0.054277327 0.15317453 0.042717855 0.15317383 0.062365912 0.057937402 -0.32207632 -0.11738054 0.079860136 0.23389941 -0.13363755 0.22680862 -0.057204213 -0.020526016 -0.035823535 0.2155789 0.1686712 0.060897052 -0.08520458 -0.3659932 -0.21471895 0.029655142 -0.19274777 0.22772753 0.017217316 -0.10393208 -0.29273987 0.18258528 -0.08736432 0.06958305 -0.036828 0.096126944 -0.056760047 0.121003054 0.15243533 0.14976114 -0.07061483 -0.46196982 -0.14906304 0.24374956 0.21742867 -0.43432513 0.24736728 0.24880794 0.22314562 -0.17418513 -0.017823493 0.07339956 0.10978654 0.11658604 -0.046412725 -0.05413375 0.17931972 -0.13943706 -0.08051343 0.20968491 -0.038137794 0.14949688 0.10525193 -0.21289665 -0.17351924 -0.17230946 0.07179984 0.44096172 -0.10340027 0.25319278 0.058419928 0.08162805 0.029893886 -0.061324887 0.15868403 0.26695704 -0.2281898 0.051465776 0.08973497 -0.316964 -0.15548603 -0.12494396 0.182924 -0.22509603 -0.013861516 0.100884385 0.050482336 -0.3980695 -0.3194765 -0.07989254 -0.16115336 0.321097 0.35530472 -0.109260626 0.0690532 0.17111337 -0.041894242 0.17172389 0.05229856 -0.1096832 -0.1014086 -0.34306937 -0.072080754 0.21650949 0.19870009 0.114106946 -0.045515377 -0.07012848 -0.18546306 0.11043492 0.17444183 -0.08517431 0.16750994 -0.113014944 0.03933117 -0.084760085 -0.39181948 0.18639655 -0.07955071 0.17733525 -0.05380006 0.3158852 -0.3152713 -0.22091155 0.025392508 -0.018266665 0.0053651044 -0.11538288 0.0105881095 0.128497 0.07480672 -0.1092386 0.16184099 0.13839632
29 0.25606886 0.014294466 -0.15807709 0.40248957 -0.07183091 -0.6881171 -0.13370536 -0.43179813 -0.052350704 0.09726977 0.0553424 -0.26878238 -0.08969831 -0.18792085 -0.118967354 -0.12587012 -0.24470803 -0.04920946 0.35728052 -0.02773315 -0.048873506 -0.14035843 -0.06850412 0.3385981 -0.49199694 0.055048205 -0.06548454 -0.19416027 -0.11620932 0.17084722 -0.0051897634 -0.114323206 0.10318887 -0.057838194 0.14663127 -0.07645606 0.029082583 -0.10786608 0.37041315 -0.2626874 0.05793431 0.09005703 -0.5440297 0.13433887 0.57355523 0.1888817 -0.33787945 -0.30502495 0.33206394 0.21569061 -0.21285176 -0.326817 -0.24547815 0.14545587 0.0636781 0.23993899 0.0009086478 0.3459956 0.13014108 -0.27198243 0.05518291 -0.06383274 -0.07082902 -0.05472295 -0.11892858 -0.13553523 0.014431682 0.10458988 0.20415524 0.3764527 -0.2355055 0.48667327 -0.46873474 0.110738635 -0.08986466 0.2682308 0.31240532 0.46915472 -0.045631163 -0.1221727 -0.08959207 0.14222442 -0.09265972 -0.028994942 -0.07679831 -0.1020999 0.1852921 -0.30210152 0.05460522 -0.48845124 -0.07657984 -0.04869354 -0.23815314 -0.2245576 0.13123704 0.20217463 0.08312771 0.1413965 0.06963118 -0.26659694 -0.19719766 -0.11766627 0.0035524857 0.114693254 0.060383532 -0.19985375 -0.14575914 0.011281209 0.05695595 0.057415012 0.33485335 -0.17578928 -0.05683374 0.05278463 -0.12450563 0.12234888 -0.3651291 -0.028122922 -0.27411306 -0.09242022 0.06799977 -0.1960034 -0.10655086 -0.14384285 0.16852523 0.13660394 0.23310842 0.06822054 0.013021703 0.0668336 -0.035288107 0.16459751 -0.31901065 0.2456938 0.3379541 0.2803751 -0.14569034 0.3101721 -0.02771251 -0.04594506 0.19574371 -0.07969118 -0.3399458 0.27039444 -0.15472819 -0.31994325 -0.43605578 0.10740297 0.102142 -0.18188152 0.17545363 0.20311952 0.15555073 0.18110384 0.18559095 -0.2592929 0.058456708 0.26430103 -0.0068370285 0.3419865 -0.33022058 0.2244773 0.11415819 -0.05323634 0.070494555 -0.12732871 -0.20945969 0.17792474 -0.15477955 0.4145227 0.10281234 -0.4809476 -0.31796768 0.09623164 0.40968317 0.2112783 0.28906637 0.33072472 -0.011750939 0.43303332 -0.026258038 0.45950377 -0.1726992 -0.003348708 -0.12728025 -0.3149342 0.21085408 0.09363997 -0.10142312 -0.05791201 0.22172813 -0.07781216 0.06690288 0.12481921 -0.47025135 0.11052476 -0.19732675 -0.0421102 0.01180587 -0.23139645 -0.1197244 0.026361063 -0.29927242 0.01880707 -0.14914058 -0.2825639 -0.3335401 -0.09490478 0.19355494 0.37797177 0.07335037 0.29014918 -0.08003526 -0.18097718 0.29940438 -0.21676828 0.2589295 -0.19967969 -0.058324404 0.050865766 0.048873268 0.09688838 0.17467219 -0.46021432 0.23507716 -0.050724834 0.002331449 -0.09087171 -0.1055957 0.27252388 -0.1268579 0.06876985 -0.14485359 0.29679826 -0.17976384 0.09122081 -0.35589138 0.006571764 -0.20279692 0.016416756 0.18241946 0.47395375 0.041661724 -0.1184375 -0.536594 0.66631496 0.11257038 -0.083359696 0.11163627 -0.23315209 0.067365944 -0.08893463 0.24203724 0.16175243 0.25619036 -0.17997347
36 -0.012888448 -0.14405265 0.12114087 -0.122101896 0.10966513 -0.40353262 0.24617927 -0.3540985 0.11346413 -0.008315938 -0.23766507 -0.263186 0.015793428 -0.20687465 -0.094465576 -0.21774937 -0.04967949 -0.14480342 0.37701127 0.0072039072 0.1133678 0.19190484 -0.0043378924 0.48324955 0.109955184 0.07847734 0.22775647 -0.2019938 -0.42592615 0.01782696 -0.33947214 -0.22860245 -0.0895711 -0.09715073 -0.040348552 -0.37986785 -0.038785145 -0.32402024 0.06445837 -0.23136863 -0.03911962 -0.07698628 0.18636355 0.55133927 0.3201166 -0.19723247 0.03416052 0.2276465 -0.09814364 0.14632633 0.11731124 -0.07212539 -0.2598955 0.043805946 0.33475477 -0.13703269 -0.03998593 0.22351238 -0.21674095 -0.3237873 -0.35059085 -0.04525701 0.30671486 0.27404 -0.24634342 -0.03575922 -0.35974598 -0.2489224 0.15843497 -0.035008848 -0.107991375 0.15403174 0.11332181 -0.053090416 0.016603446 -0.065234914 0.008110645 0.44359586 0.36383 0.09347066 -0.17468983 -0.2545377 -0.032479875 -0.11704132 -0.28343436 -0.25374097 -0.13766181 -0.069299445 0.007923223 -0.063369766 -0.2834012 0.004380593 -0.10765938 0.014630158 0.03947379 0.43262836 -0.09441213 -0.020154346 0.37971365 -0.3141842 -0.042119905 -0.003741777 0.18950139 0.17888725 0.33036608 0.33620745 0.1138221 0.15925819 -0.020396583 0.21411943 0.2826018 -0.27867383 -0.10679839 0.06954281 -0.15604402 0.09057989 -0.46837047 0.023353882 0.1257437 0.13004504 0.08337915 -0.111046396 -0.16058975 -0.21443473 0.14962246 -0.1851837 0.25633004 0.34815484 -0.25467163 -0.06061806 -0.17803775 0.17713805 -0.035228275 -0.104862526 0.5161415 0.27497604 -0.25219893 -0.12779601 0.16569197 0.19604732 -0.017249312 0.30379352 0.16424134 0.06139009 0.0054284916 0.08045757 0.1644517 0.105372086 0.012740024 0.4246326 -0.009473924 -0.0057495413 -0.29917955 0.06482573 0.1666486 -0.19566101 0.080880485 0.053775705 -0.036766663 0.034513954 0.17253642 0.22752097 0.31007227 -0.21182483 0.030942312 0.14441031 0.17565075 -0.41245952 0.19648007 0.039603196 0.02619353 -0.14493892 -0.32527402 0.352007 -0.13939847 0.081188 0.040149834 -0.17138278 -0.17960243 -0.15431966 -0.1020044 0.08891782 -0.0143990815 -0.1525201 -0.28921187 -0.2816737 -0.29207703 0.1330093 -0.15669966 0.17323592 -0.25015184 0.22602628 -0.013514765 0.023344804 -0.25560328 0.13009194 -0.15550773 0.28137505 0.19577427 0.23831326 0.29774582 -0.24818686 -0.4328998 -0.106531985 0.1362858 -0.09997499 -0.09798558 -0.1852544 -0.3074343 -0.28199467 -0.24567322 0.21691361 -0.061952103 0.30628625 -0.03912426 -0.2819057 -0.0008695811 -0.0645327 -0.38799083 0.10108349 0.23022936 0.12120922 0.045196995 -0.13756709 0.061038185 0.43003118 0.29969555 -0.26019496 -0.33039346 -0.07143019 0.013637149 0.43482217 -0.07746676 -0.21897891 0.10454891 0.049849734 0.024981359 -0.14181438 -0.3978879 0.025830494 0.30717257 0.33395395 -0.26174754 0.2931624 0.123804115 -0.1769909 0.058543745 0.4062929 -0.10974061 0.2068453 -0.12905294 -0.11727756 -0.13350825 0.28660157 0.4368936 0.030025376
19 0.21344064 -0.28344756 0.03519133 0.26866287 -0.13575427 -0.22893256 0.018253865 -0.43907705 0.09444535 -0.038599636 0.092474386 -0.18597575 -0.22230384 -0.10895024 -0.04057953 -0.15938403 0.033807956 0.18349813 0.24876747 0.34198186 0.080392174 0.23556925 0.15947199 0.17678085 -0.20848082 0.16188091 0.11286105 -0.3279731 -0.2739416 0.079036534 -0.10716976 0.06874189 0.09293455 -0.124013856 0.13265139 0.13768986 -0.16346155 0.055647988 0.10293284 -0.009951288 0.035822775 0.106834084 -0.0015069272 0.3176965 0.37381566 0.12982152 -0.05499014 -0.08582576 0.110199906 0.28944597 -0.105091356 -0.0043706116 -0.47284684 -0.28508028 0.3999582 -0.2226104 -0.21230821 0.24903423 0.22408842 -0.18033905 -0.05150568 0.19050787 -0.06327739 0.053215392 -0.17654333 -0.26899016 0.072229914 -0.13849346 0.1253683 -0.19450387 -0.114207 0.27722713 -0.22054231 -0.00082468416 0.011070005 -0.17757103 -0.049777262 0.6815704 0.11191893 -0.16980663 -0.106397875 0.053433392 0.04760702 -0.17825097 -0.32314706 -0.12191767 -0.13612908 -0.03527287 -0.13920052 -0.16570021 -0.15577951 0.10774353 0.20358753 0.14244133 0.06833733 0.19578214 -0.11892015 0.30857092 0.028650215 -0.046820696 0.24311046 0.2290339 0.086101994 -0.24695581 -0.012243513 0.12310172 0.07638474 0.10416742 0.2281256 -0.18701819 0.007071673 -0.1766361 -0.06267313 0.14950609 0.25802767 0.23710199 -0.2650878 0.077425316 -0.29803932 0.09362665 -0.042132042 -0.20089406 -0.092954725 -0.19624588 -0.15354791 0.16102034 0.17807235 0.1001246 0.030748371 0.10399855 -0.09665451 -0.016591197 -0.066905595 -0.012182765 0.26841587 0.20905259 -0.00583919 0.07092184 0.07997037 0.01973815 0.25423795 0.268138 -0.14438729 0.017145082 0.03840528 -0.13675398 -0.28218016 0.053339865 0.07321265 0.10438876 -0.10314919 0.087861896 -0.04727231 0.33162978 -0.00896867 -0.150829 0.05115743 0.17061764 -0.046676457 0.051635448 0.19661525 0.1518323 -0.16518472 -0.3452692 0.12948938 0.15627533 0.054368857 -0.22086474 0.11073413 0.037311405 0.2709359 0.059277073 -0.17203663 0.06287979 0.040107958 0.23039678 -0.33445945 0.16125663 0.15902929 -0.10217272 -0.17298351 0.13131727 -0.15847468 0.19882403 0.035156514 -0.047015384 -0.07001938 0.13310608 -0.06749654 0.045333523 -0.066194296 -0.038301155 -0.08618981 0.07270222 -0.28318793 -0.01605756 0.18987928 0.052625697 0.032019466 0.110124156 0.13857354 -0.24939191 -0.046523936 -0.030512089 -0.032744188 -0.030519787 -0.06274252 0.1867704 -0.033739634 -0.2330553 -0.05921169 0.1500261 0.24955904 0.11894397 -0.009188263 -0.10673051 0.102620415 -0.2540412 -0.29545772 0.23105519 -0.047738355 0.14244857 -0.03128806 -0.17166114 0.19321145 0.2553016 -0.07179515 -0.16607244 0.01733521 -0.06902752 -0.0048645497 -0.06315558 -0.13147713 0.03463248 -0.12627926 0.26669016 0.1361475 -0.048254967 -0.23624806 0.25088868 0.37346163 0.3730161 -0.032806102 0.1522059 -0.013383334 -0.07087619 0.057599038 0.006020128 -0.05244389 0.030507755 0.0053484943 -0.13991295 0.13825454 0.16792233 0.027772646 0.16531914
67 0.1813672 -0.105428606 0.12878053 0.4499793 0.13735348 0.13104111 -0.24266925 -0.47855976 0.5823034 0.027902124 0.10281322 -0.27701962 -0.072415225 -0.2951773 0.11458034 -0.22907102 0.04749528 0.023104826 0.12304449 0.08462696 -0.47414833 0.0054316605 0.030542528 -0.01894186 0.15475488 -0.20378973 0.16875045 -0.14410615 -0.055176307 -0.15521096 -0.3857821 -0.007601173 0.0291735 0.052358545 -0.16194129 -0.007815231 -0.09416363 -0.15910174 0.17922163 0.10718914 0.0047341473 0.24924512 0.08246946 0.3354629 0.14718314 0.09703242 -0.1513415 -0.03472994 0.4863167 0.2371304 -0.33113852 0.03379848 -0.12665007 0.03258825 -0.16518863 -0.2178713 -0.013414384 0.2335739 -0.01985435 0.14963521 0.048618253 -0.4898449 -0.13293737 0.021220086 -0.56490153 -0.019606067 0.21710095 -0.3475679 0.27365422 0.07694283 0.36920023 0.35487458 0.09026646 0.11373852 0.13500364 -0.24796112 0.07961467 0.56988275 0.1527749 -0.09351922 0.20599595 -0.1529837 -0.35502642 0.016665868 -0.31263518 0.1083919 -0.25327486 -0.2485148 0.05927757 -0.5959274 0.34996837 -0.0016375429 -0.4955444 -0.063720524 0.24264897 0.25332737 -0.18676801 -0.1835306 0.023300856 -0.29537868 0.109461494 -0.082624786 -0.0482512 0.072726496 -0.021645365 -0.28691784 -0.16952711 0.10639536 0.0316684 -0.43060347 -0.2445761 -0.22227238 -0.11721709 0.16089097 0.14806245 0.11504953 -0.3209606 -0.19747692 -0.20472911 -0.21399656 -0.34467402 0.024199491 0.158887 0.114079565 0.2863694 0.22568204 0.27595505 0.25472167 0.050696276 0.1538037 0.5236671 -0.062332254 0.260145 -0.046464186 0.41703972 -0.06809635 -0.30018443 0.15318443 0.18808989 0.18233407 -0.04279921 0.034300208 0.10638257 0.05007564 -0.19685736 -0.06905665 -0.3154525 -0.09562286 -0.031027114 -0.10721365 -0.18528719 -0.124185175 -0.09841251 -0.10828402 -0.13820013 0.11106268 0.020943293 0.29254377 -0.29305583 0.25241145 0.3034729 0.17616105 0.0083416635 -0.13316222 -0.067258224 0.062394585 -0.26323968 -0.5578669 0.09299801 0.19818836 0.046088148 -0.31700093 0.014613073 -0.23419869 -0.42603028 0.235029 0.4545214 0.021799508 0.20346779 -0.103852496 -0.05501881 0.1954076 0.01285052 0.023138324 0.5544 -0.63178647 -0.077529095 0.0557547 0.15694839 0.122736804 0.06997479 -0.077497564 0.26287767 0.0032250609 -0.2681903 0.020647576 0.17296684 0.00034048595 -0.14632322 -0.05287538 0.3070366 -0.3185381 -0.1486483 0.13912936 0.10128856 -0.062088035 0.15696727 -0.085371435 0.16413715 -0.34838063 -0.03948924 0.13715316 -0.1396709 0.42995954 -0.2695287 -0.02153856 -0.19194554 0.16345888 -0.08437485 0.16051015 -0.055892143 -0.26996928 0.1606162 -0.13519444 0.067877576 0.089377664 0.311818 0.15917848 0.096469015 0.15824476 -0.27187496 0.23933624 0.41907582 0.19141911 -0.17004552 0.14035332 -0.04967285 -0.024158042 -0.22323921 0.001268251 -0.16637786 0.31279415 -0.028902087 0.31436175 -0.24196813 -0.25406978 0.02910493 0.15411136 -0.27279818 -0.33438343 -0.11879033 -0.20972691 0.043143533 0.25345203 0.3008115 -0.05426604
39 -0.15686359 -0.21583687 -0.06223272 0.32205996 -0.09365022 0.048693147 -0.3418105 0.05348373 0.08798406 -0.037482426 -0.58696854 -0.031978488 0.1480563 -0.306392 0.046796042 -0.42999515 -0.47087264 0.22455011 0.4860395 0.08430243 0.5010251 0.10355417 0.24342075 -0.039058696 -0.41186857 0.4904136 -0.36208504 0.20325094 -0.5528871 0.25437346 -0.15001303 -0.3452413 -0.28713152 0.0453855 0.33448407 0.17468919 0.69907445 0.12826483 -0.21288478 -0.120990425 0.23328824 0.4488631 0.16367042 0.27795148 0.1558118 0.4291231 -0.2958449 0.2273147 -0.13838436 0.118645035 0.118134506 0.106067754 0.043989867 0.38869384 -0.28663754 0.30810475 -0.07036033 0.5522392 0.10835923 -0.40745276 0.18006046 0.004540156 -0.10876589 -0.268914 -0.13820434 -0.30877802 -0.019201074 0.20887478 0.3890863 0.41868147 0.14990097 0.118875675 -0.2544366 0.30179688 0.24025948 0.25785133 0.043174244 0.433069 0.28331155 0.13769445 0.26652765 0.27592877 0.011377215 -0.14363115 0.080603436 0.20873822 -0.02422978 -0.0875219 0.20340705 0.00598058 0.04988864 0.23443471 -0.41409045 -0.113801606 -0.0075377496 0.19894126 -0.3579983 -0.90120655 0.13771833 -0.12713674 -0.08636769 0.02338778 -0.253196 -0.07997977 0.26508006 0.24113213 0.21859463 -0.23582935 -0.14946908 0.076500006 0.3299807 -0.16767356 0.3959797 -0.18015829 -0.3132027 0.24514344 -0.6998592 -0.2235648 -0.1491195 -0.69837856 0.577238 0.03594541 0.58562803 -0.093930885 0.3799703 0.11564939 0.27713567 0.421756 0.29919872 0.28319994 -0.5013527 0.04988827 0.24256347 -0.3273218 0.55159616 0.25719035 -0.18370064 0.39229771 0.2173421 -0.43983802 -0.45223406 -0.59639657 0.38788134 -0.48695502 0.1263453 0.27628985 -0.17219801 0.25818923 -0.30128458 -0.0738603 0.47369474 0.0058510527 0.13479285 0.53262436 0.24307737 -0.08142102 0.41189885 -0.063065365 -0.19796856 0.558053 -0.3262216 0.15190177 0.031612527 -0.0799341 0.41044414 0.4341151 -0.21994305 -0.0037802185 0.027803436 -0.2741456 -0.2872751 -0.0313055 0.18775085 0.15552105 0.08474355 -0.16801526 0.31464362 0.094775856 0.020263463 0.2731227 -0.12367824 -0.21478845 0.6024492 -0.08254468 -0.31664094 -0.8649563 -0.006949311 -0.032569498 -0.4521522 0.06361336 0.5419246 -0.073599055 -0.12662284 0.07694988 -0.2516163 0.5564629 0.08588685 0.522767 -0.047412407 0.042132623 -0.40349084 -0.2984341 -0.35336152 -0.5237102 0.09869971 -0.13512167 -0.035531364 -0.15927792 0.08850301 0.12904195 -0.4243238 -0.0599533 -0.5890738 -0.37803495 -0.0745758 0.3021527 0.21252151 0.027895605 0.028250009 -0.10185432 0.6260021 0.15535685 -0.3293444 -0.3112703 0.44648895 -0.2826971 0.49739996 -0.38178983 -0.31162858 0.4948481 0.041337933 -0.085811 0.2194888 0.074070856 0.1832029 0.063788205 -0.1621631 -0.030028325 0.06413595 0.08303792 -0.1470584 0.4263545 -0.15224655 0.35671762 -0.35576308 -0.057100877 0.029577019 0.67287225 0.3924665 -0.17319962 0.10191966 0.1376711 -0.16084746 0.0631619 -0.083928704 -0.23636733
40 0.14685814 -0.25895134 0.00735061 0.4051053 -0.062088575 -0.36483848 -0.004252008 -0.22023019 0.1979321 -0.033789348 0.13060479 -0.14208208 0.042032085 -0.37264314 -0.1747257 -0.29215628 0.2047693 -0.14439888 0.14395246 0.03758601 -0.04802205 0.041891783 0.23355499 -0.013174867 -0.19271012 0.104909524 -0.065048985 -0.22536911 -0.1133012 0.118469976 -0.11041021 -0.20357521 -0.13053499 0.023359513 0.095448546 -0.020586677 -0.13308671 -0.16833125 -0.05815509 -0.4193809 0.06636725 0.25663674 -0.19882837 0.2979467 0.29374406 -0.070107885 -0.231023 -0.2216033 0.23031063 0.2851604 -0.04528007 -0.22599111 -0.47182494 -0.0360947 0.20146161 -0.30068886 -0.20023821 0.2402611 -0.021294035 -0.33420235 0.03968337 -0.013129547 -0.0382126 -0.25155178 -0.11962174 -0.045422733 0.07814359 0.08791302 -0.23608102 0.39393842 -0.24751392 0.2867866 -0.14759053 0.05669248 -0.08756362 -0.18988575 -0.039825086 0.4481238 -0.16170353 -0.12867379 -0.027668236 0.052109532 -0.073093325 -0.16078044 -0.39507315 -0.013604417 -0.13433926 -0.111036845 -0.14901009 0.06800606 -0.18241146 0.1356155 0.0648335 -0.17664477 0.08001805 0.22613415 -0.059637364 0.26315296 0.11436686 0.1896884 0.18628871 0.27687663 0.2307584 -0.15055148 0.17329583 0.07831606 0.14191315 -0.08469916 0.18577117 0.046124365 0.030681284 -0.06573341 -0.1614298 0.008931763 0.18637334 -0.005693747 -0.29273397 0.0016142239 0.044000767 -0.11630165 0.1475215 -0.09193746 -0.11408457 -0.24785794 -0.1912459 0.04266357 0.22703424 0.14542547 0.025950057 -0.17125943 0.06724437 0.13041538 -0.19451004 -0.08191489 0.40989068 0.3198246 0.06966232 0.123615645 0.10408467 -0.18568687 0.2524139 0.06802963 -0.12101816 0.03802399 -0.021618182 0.001139664 -0.20411089 -0.04939814 0.13998419 0.031339258 0.26286092 0.06476868 0.021347627 0.1370504 0.09730196 -0.124949664 -0.138037 0.20752856 -0.104116514 0.09399116 0.26062426 0.13756186 0.46444288 -0.035086893 0.07988832 0.013394347 0.049290955 -0.13241462 -0.0469231 0.073807746 -0.021274615 -0.21037827 -0.13915654 0.012745859 0.007900814 -0.03535866 0.0014533581 0.060031194 0.18372746 0.09599989 0.024750285 0.318158 0.023659404 -0.13776097 -0.26273113 -0.40697268 -0.13854879 0.18084176 0.22049 -0.17911142 0.12591 0.2527533 0.2665215 -0.10884433 0.00048227308 0.015500886 -0.04819136 0.089033835 0.036603425 -0.05418591 0.38757652 0.031497482 -0.111581124 -0.14583106 -0.089084186 -0.15593341 -0.081347845 0.07519806 0.25378945 -0.09957929 -0.30558148 -0.13793276 0.09345798 0.03931403 0.3828589 -0.18716028 0.08029259 -0.25608996 -0.0042296783 0.043552153 -0.0011498436 -0.0028905296 0.12763669 0.066937625 -0.11564592 0.3514214 -0.15300547 0.061907213 -0.1997178 0.15900457 -0.3094578 -0.28304374 0.36067268 0.19534677 -0.114786126 -0.015755402 -0.14931151 0.15008387 -0.31904513 -0.07105861 0.29350996 0.29418883 0.05824597 0.13013089 -0.039938144 0.21442752 -0.054918665 0.13996176 0.4761678 0.040359925 0.19816703 -0.24951874 0.028560817 -0.08252516 0.12532982 0.34463933
9 0.06526565 -0.07914737 -0.09770253 0.31593373 -0.072006755 -0.33067188 0.350916 -0.2004927 0.26559955 -0.34926012 -0.026930917 -0.18324758 -0.11961044 -0.6913658 -0.08233348 -0.27406484 -0.1176322 0.39689362 0.0012217441 -0.12884945 0.027627995 0.28216484 0.24656111 -0.21155785 -0.3975095 0.07804688 0.049134444 -0.25262204 -0.18720333 -0.19851993 -0.0489121 -0.06752375 -0.013818401 -0.1484748 0.22881599 -0.12088068 -0.047730252 -0.17234984 -0.20169528 -0.22506784 0.027493019 0.39377695 0.034454495 0.2670766 0.31984138 -0.06644776 -0.013611294 -0.38007894 0.15549728 -0.16169879 -0.36212596 -0.17375867 -0.3547238 0.015070008 0.41440624 -0.118549384 -0.051961247 0.5151917 -0.01862856 -0.4579163 -0.11975376 -0.009730589 -0.29894224 0.023608472 0.0061570345 -0.15195161 0.17052738 0.14122218 -0.19412406 0.23228557 0.12198393 0.59466714 0.22725126 0.18294986 0.07905577 0.020852199 -0.20829096 0.59192276 0.0022124662 -0.03193113 0.5223684 -0.082953446 -0.046944853 -0.35246295 -0.2852696 -0.3312424 -0.006026153 0.0268126 -0.1426824 0.03714576 0.43603003 -0.060112573 -0.04185694 0.21199068 0.15788831 -0.06925756 0.0032790476 0.29471347 -0.10908056 0.39087933 0.12763058 -0.048358586 0.14365233 0.08914681 0.30373266 -0.15550375 -0.3194443 0.14836186 -0.11522362 -0.20092599 0.48708442 -0.0501306 0.41753122 -0.060675163 -0.2455989 0.16212869 -0.5587113 0.39300653 -0.22205266 -0.033509564 0.09672842 -0.113042526 -0.0664248 -0.10381781 -0.098033965 0.117474355 0.20828177 0.2648447 -0.077608645 -0.062769555 -0.24202195 0.0035282236 0.042860933 0.08088158 0.40434998 0.18909787 -0.25593266 0.31467015 -0.1889845 0.06000904 0.18711926 0.046132892 0.15566626 -0.06900732 0.059589792 -0.3487536 -0.55085796 0.0048129144 0.24622719 0.05926366 0.17710727 0.3676883 0.11433149 0.063378036 0.16467355 -0.16913255 -0.18320543 -0.016910493 -0.1837259 0.013683592 -0.10985927 0.207707 0.19506544 -0.08335706 0.22046073 0.072899036 0.017342983 0.14757596 0.06874496 0.29787675 0.2948798 -0.52864784 -0.020947559 -0.11314792 -0.04288295 -0.15887804 -0.08668607 -0.036086623 0.08175692 -0.08890071 0.14000812 0.06697119 -0.08759243 0.13698316 0.19641195 -0.3430087 -0.41755962 0.33262184 -0.14030209 0.20090044 -0.06277561 -0.14078958 0.032904714 0.17859274 -0.20476778 -0.04581362 -0.0036654607 0.03663963 -0.17802311 -0.334578 0.04319804 -0.348107 -0.14272422 -0.11393426 -0.031785145 -0.12826978 -0.22394857 -0.22722514 0.37630638 0.0924565 0.055934414 -0.26930624 0.040438477 -0.05184929 0.04746066 0.0069227456 0.59640056 -0.036410883 -0.077460274 0.1415429 -0.110750236 0.093197346 0.010830661 -0.5330289 0.0025295992 -0.1655443 0.16702893 -0.037182886 0.074107155 0.08770092 -0.22265413 -0.005284811 0.01441255 0.20961687 0.3108328 -0.1461479 -0.21185647 -0.21902756 0.017511688 0.3841533 -0.07156337 0.5706646 -0.063035585 0.061928373 -0.21878721 0.19663034 -0.17190586 0.1812117 -0.21977167 -0.07711509 0.32119435 -0.11162001 -0.24037646 -0.101656236 0.03319659 -0.016886786
71 0.18615817 -0.29567114 0.4153609 0.16785778 0.19307229 -0.15583055 -0.42581615 -0.3752934 0.659615 0.113231726 -0.26607135 -0.3331232 0.09584043 -0.11122991 0.03331849 -0.63209504 -0.345889 -0.094753556 0.12127233 -0.25601178 -0.41054842 0.22808555 0.032157056 0.3824601 -0.38276 -0.20757273 0.6984649 -0.062052794 -0.16838685 0.109443195 -0.5089959 -0.5309918 0.14257212 -0.222262 -0.40617713 0.12979458 -0.12802045 -0.06867822 0.54532474 0.06159648 0.20395808 -0.025093455 0.026880873 0.1497968 0.14328416 0.1260061 -0.005076741 -0.32237887 0.042443164 0.23883608 -0.36603257 -0.13115971 -0.31803542 0.09757036 0.036862627 -0.46791524 0.22381318 0.13237369 -0.080243416 0.033599976 -0.049835317 -0.064264126 -0.19631425 0.28316548 -0.44325042 0.20865454 0.25841343 -0.35857078 0.229946 -0.14103982 0.28877324 0.30199525 -0.17363279 -0.024091374 -0.12957868 0.039685164 0.2966309 0.44822297 -0.21171981 -0.27679858 0.19677702 -0.1804426 -0.111236714 -0.07362486 -0.060871396 0.08516452 -0.23455372 -0.33497956 -0.05163207 -0.20098858 0.25147548 -0.07625463 -0.40189743 0.22461575 0.20849833 0.31159434 0.21978074 -0.6526969 0.116630495 -0.38527614 0.05326447 -0.38027745 -0.35947692 0.36971545 0.00020122612 -0.22816625 -0.2423473 -0.021259656 0.098849125 -0.10422806 0.20176323 0.23981248 0.09767338 -0.10291322 0.0151642375 -0.08631641 -0.37740934 0.2664233 -0.2480002 -0.2671354 0.275434 0.070861734 0.1304709 -0.5097899 -0.011955378 0.09057096 -0.011761045 0.018460048 -0.18220758 -0.10290939 0.46170324 0.0626419 -0.0033961034 -0.006640571 0.69577634 -0.49638098 -0.17912638 0.579464 0.07997968 0.4010145 -0.33306015 -0.37421122 0.20008983 -0.17780556 0.0017961994 -0.21784303 -0.18780245 0.09642084 -0.03954868 0.013614963 -0.08595126 -0.37901974 -0.3015038 -0.10883484 -0.77385736 -0.20312774 0.012669207 0.14569496 0.084730744 0.31917825 0.22228526 0.38550708 0.2764473 0.09200756 -0.11821648 -0.120929286 0.17682791 -0.797158 0.31801578 0.28916672 0.1869042 -0.25722194 0.07164201 -0.1650618 -0.16103089 0.14849922 0.31622773 -0.006350966 0.19163334 -0.2774564 0.2014777 0.44229263 -0.1417919 -0.038706973 0.4024921 -0.4413879 -0.13208793 0.061231915 0.0031126165 0.2318203 -0.56630576 0.0011221819 0.13577104 -0.14292842 0.1421157 0.050014205 -0.07353571 0.018419966 0.007951418 -0.24913874 0.3082959 0.022598194 -0.37322766 0.09694548 0.10430936 -0.11158826 -0.24203974 0.06587143 -0.20038056 -0.31882578 -0.30233902 0.45891768 -0.17036802 0.15688324 -0.13414581 0.20311123 0.18763776 0.17637685 0.24540927 0.2369925 -0.12613022 -0.23784843 -0.10973854 -0.39104977 -0.021232571 0.3212272 0.3653588 0.45463395 0.03171566 -0.118368134 0.03469186 0.064354114 0.009674986 -0.24812868 0.11530303 0.1761362 -0.35133913 -0.32601562 -0.12274604 -0.07710203 -0.4289377 0.5652967 0.044884525 -0.08666611 -0.25840816 -0.37931925 0.1340246 -0.04165827 0.091502346 -0.18964718 -0.14445516 0.336254 -0.4728985 -0.06516907 -0.055521708 0.28999478
23 0.42552814 -0.031181706 -0.49178395 -0.075272076 -0.0054345606 -0.11826995 -0.25958237 0.21970515 0.18152706 0.40900522 -0.040673066 -0.16481407 -0.45541513 0.117046446 0.2672177 0.08785704 -0.24624506 0.039571177 0.48295552 0.06368971 0.593004 0.37345544 -0.0855334 0.83851564 -0.16631001 0.052258674 -0.13299602 -0.46646345 -0.4160476 0.60743564 0.07911922 0.00016947248 0.13119107 0.43714437 -0.08374477 0.02530853 0.2541226 -0.550576 -0.15997677 0.43055663 0.2563177 0.36882535 -0.0021448436 0.124243796 0.4166989 0.09826065 -0.47092542 0.11491283 -0.2782799 0.042485736 0.32435718 -0.17558008 -0.123145215 -0.17991099 0.07093362 0.07645688 0.27551377 0.5096335 0.029593943 -0.6064809 0.534256 0.36479062 -0.00080325874 0.3599498 0.34769052 -0.13242814 0.20575854 0.05708027 -0.021415992 -0.2585323 -0.25855026 0.10536197 0.23225026 -0.042208556 -0.008618138 -0.10943051 0.08900968 0.47835135 0.010460506 0.41015133 0.20148149 0.18415645 0.031915683 -0.08497545 -0.29231587 0.08634241 0.060508613 -0.12718605 -0.0076728086 -0.14449672 0.20658493 0.11783121 -0.38365918 -0.12972182 0.015518768 -0.16371688 0.017026225 -0.22811513 0.25535974 0.059764937 -0.11556137 -0.25306812 -0.113091044 -0.07301168 -0.05515238 -0.4957856 0.1567813 0.118314795 0.51932585 -0.22228335 -0.040883653 -0.15649402 -0.26767996 0.1254489 -0.004635943 0.115305334 -0.21177341 0.027539795 -0.37742934 -0.24387187 0.104522966 -0.016851278 0.1899344 -0.054985125 -0.09626474 -0.51477545 0.16697818 0.13711087 -0.34381378 0.18111056 0.18803766 -0.008252911 0.23293734 -0.06434195 -0.043617956 0.45336732 -0.82499844 0.6234799 -0.08848495 0.031424437 -0.20585223 -0.19146316 0.18455079 0.08288639 -0.21867786 0.17815784 -0.36456147 0.09960698 0.27358353 0.0331348 0.42777666 -0.043234877 -0.12219879 0.13683283 0.095333695 0.086716734 0.5035837 0.36035803 -0.2140918 0.41418165 -0.18505688 0.096626505 -0.11478558 -0.027461397 0.08794992 -0.2419489 0.5557706 -0.7951419 0.30136913 0.10245029 0.38038677 -0.15458427 -0.17813133 0.4441352 0.49670765 0.45435905 0.10767166 0.17627281 0.41619283 0.40766066 -0.29003978 0.024839282 -0.14255947 0.21731625 -0.05125601 -0.25175992 0.41281363 0.035523117 -0.3360234 -0.07106007 -0.124526806 0.4138298 -0.012897356 -0.39985713 0.08035784 0.0042696265 0.15424433 0.46177265 -0.17000745 0.12199911 0.21243401 -0.030852392 -0.514929 -0.06571188 -0.2211872 0.17486796 -0.45276654 -0.17534798 0.524175 -0.04963137 -0.011385603 0.12449665 -0.05968429 -0.009061512 -0.12696898 0.2632015 0.26910186 -0.014422142 0.1561486 0.27689922 0.36327088 -0.010277528 -0.2083909 0.013237302 0.012297855 0.23845546 0.2816088 0.25879732 -0.28719816 0.17481767 0.36567375 0.21237499 -0.10175969 -0.12589234 0.19903389 0.015013171 -0.44329754 -0.16516913 -0.27079877 0.09726925 0.25617144 -0.19040489 0.07488398 -0.7488739 -0.06544187 0.09443942 0.014029593 0.12527454 0.2616945 -0.2925111 0.17231573 0.06390749 0.2589243 -0.22781262 -0.18935467 -0.048993126
70 0.52144235 -0.6287437 -0.026459018 0.21574114 0.04981329 -0.43759438 -0.06421606 -0.014647169 0.4067054 0.4248905 -0.11311171 -0.18511169 -0.45473358 -0.32969072 -0.11456426 -0.14206155 0.20168978 -0.2037811 0.32160076 0.4476212 -0.25754303 0.260615 0.41809613 -0.058417942 0.113014005 -0.06513708 -0.13260847 -0.49796215 -0.40076172 0.30112064 0.13863112 0.035125792 -0.020609418 0.01947757 -0.23055373 -0.29470187 0.2067454 -0.05516635 -0.18096653 0.08152209 0.09638107 0.28023905 -0.54539907 0.16775537 0.04309835 0.36287743 -0.46821192 -0.30498713 0.11033981 0.17053783 0.17200029 -0.012612702 -0.48151523 0.22425692 0.108374126 0.06043806 -0.08832855 0.4834212 -0.30780333 -0.0804719 -0.04717339 -0.061309725 -0.26300177 -0.14982167 -0.27158695 -0.07602123 0.6236306 -0.20540793 0.28335154 -0.11878765 -0.57590747 0.103375435 0.1618984 0.02573963 -0.42597568 0.15055245 0.008943011 0.69717515 0.048145216 -0.24905159 -0.07526909 -0.09538254 0.08675063 0.009416336 -0.02704114 -0.128615 0.104908615 0.015140137 0.041706488 -0.21120603 0.1858509 -0.2761497 0.39412674 -0.053041592 0.09995703 0.25096002 0.061612852 0.0516345 -0.1072118 0.08778704 0.37346664 0.2986592 0.24963512 -0.17932014 -0.04644832 0.20720792 0.13167681 -0.045314655 -0.07394236 0.19952446 -0.278834 0.08778351 0.009335194 -0.097883955 0.15237898 0.063480414 -0.22511345 -0.04906496 0.01564449 -0.004096083 0.2694578 -0.37782207 0.3074603 -0.12713373 -0.32821488 -0.03825952 0.0044456692 0.18667781 0.40149358 -0.06879783 0.029899359 0.0053109406 0.12457704 -0.009424725 0.35572731 0.048275944 -0.0046538236 0.22801019 0.21393093 0.04508753 -0.14145985 -0.19794367 -0.32025293 -0.04143117 0.05405833 -0.33170444 -0.118782654 0.21979114 0.21837287 -0.1787316 0.093112715 -0.11315613 -0.21933587 0.04452265 0.092178255 0.1791524 -0.2884413 0.60091156 -0.30868748 0.11311562 0.3145231 0.21669386 0.119083926 -0.24679877 -0.29855165 -0.3249774 0.18677483 0.047439136 -0.10526448 0.14055316 0.17268501 0.08262446 -0.02978079 -0.52585167 -0.18589988 -0.00032580493 0.1411418 -0.43320373 -0.069726296 -0.0013578102 -0.13697165 0.45644757 -0.024402987 0.26017517 0.009430949 -0.26758128 -0.046852227 0.06178573 -0.043921705 -0.104916245 -0.5349675 0.06803404 0.031581063 -0.33329508 -0.21398717 -0.06385988 0.038476158 0.49930575 -0.062183045 0.1683035 0.21924451 -0.077937245 -0.1877687 -0.24478179 -0.26752248 -0.27864137 -0.05240145 0.13839997 0.064918965 0.12518744 0.026648901 0.2835704 -0.15490799 0.33187243 -0.31670943 0.018499749 0.1798412 -0.18621296 0.13449153 -0.10982862 0.5722563 0.2551943 0.21194503 0.1311861 0.18174727 -0.010352253 0.5345494 0.15363151 0.2739588 0.12612599 0.07349028 0.45100358 0.45201093 0.24241377 0.03092338 0.26239625 0.1774622 -0.26193124 0.053449832 0.17973211 0.15370682 0.13729265 -0.37625805 0.033251464 0.14938883 0.06834458 -0.25443244 0.6302458 0.10666365 0.25641984 0.53855646 -0.46201438 -0.3439948 0.28798258 -0.31207544 0.44936606
78 -0.0059376196 -0.43598998 0.4531486 0.18462393 0.005514914 0.0053222254 0.07501718 -0.25209945 0.50841856 0.01934024 -0.46268067 -0.028223693 -0.13791896 -0.19194448 0.22134176 -0.27305618 -0.09955563 -0.33574763 -0.18965232 -0.24243759 -0.22541799 -0.14033428 0.24118918 0.28582558 -0.20977439 0.25858328 0.21669899 -0.058150966 -0.10993127 -0.06063022 0.11592926 0.014818674 -0.19943158 0.2586426 -0.24704716 -0.065064035 -0.26411477 0.15039964 0.34846428 0.05330931 0.43565607 0.56703955 -0.4201841 0.17904975 0.1288514 -0.4069303 -0.03498805 0.20701537 0.08307554 0.20204903 -0.0010141997 0.07243213 -0.8365407 -0.17213586 0.25308573 0.044488773 0.015849084 0.11006735 -0.120364085 -0.2768313 -0.036118627 0.18081093 0.020308165 0.16850571 -0.3673694 0.061476 -0.16932067 -0.33244696 -0.022811929 -0.19140467 -0.1835669 0.13018182 0.06629556 0.039257273 0.26574177 0.048771925 -0.14796118 0.4756915 -0.08214287 -0.28183204 -0.029507762 0.2327914 0.08904557 0.0045205792 0.14029047 0.45414594 -0.092777126 0.41298681 0.04776921 -0.0061266064 0.54995984 -0.123570874 0.00016217073 -0.076653585 0.036606025 0.4475309 0.008128398 -0.081994854 0.024053084 -0.22489218 -0.04493393 -0.13883963 0.28931707 0.16713043 -0.0035847363 -0.039069027 0.22584796 -0.23119552 -0.24136885 -0.45613202 0.6622952 -0.26669958 -0.33222485 0.025970748 0.36078432 0.012776886 -0.7096202 0.15375037 -0.32120177 -0.3619637 -0.12772702 0.013682879 0.17980435 -0.2266762 0.22760688 -0.0601626 -0.22332276 0.20268387 0.3520285 0.45633134 0.015588732 0.16892405 -0.179139 -0.1727852 0.25259963 0.21273704 -0.66941386 0.007057168 0.047920078 0.57180667 -0.48061606 -0.033851694 -0.018911347 0.13350809 -0.067441806 -0.96638393 0.06819829 0.12854794 0.1615922 0.18597637 0.181049 0.17845926 -0.6311984 0.68190867 0.09736311 -0.19719581 -0.30355826 0.16394182 0.40807006 0.42966765 -0.23851287 0.014915083 -0.008277701 -0.28149804 -0.51340294 -0.19332656 0.17164394 -0.8679433 0.24523683 0.23425038 0.13316515 0.19013067 -0.24948598 -0.110727936 0.44042745 0.1740318 -0.067546204 -0.6675792 -0.127824 0.057802014 -0.1767369 0.63682467 -0.311583 0.14001413 -0.11200603 -0.55120265 0.030284306 -0.36267784 -0.12730311 0.5040884 -0.34691978 0.3171482 -0.31766006 0.24627908 0.2914139 0.4919312 0.26726007 0.3708032 -0.27552682 0.06532396 0.37141958 -0.46234137 -0.37442058 -0.13310152 0.060845103 -0.23856609 -0.29589954 -0.0016157841 -0.37997085 -0.07455886 -0.45517555 0.13173659 -0.35456362 0.0025357418 0.006643207 -0.23685673 0.25477025 -0.21262063 0.19042335 0.25853142 0.4729068 -0.44680932 -0.07589331 0.011494877 -0.04300151 -0.08732493 0.114610665 0.0146757 0.31710845 -0.33371186 -0.13209681 0.12732537 0.041276813 -0.19111866 0.15313664 -0.055024683 0.17382462 -0.119644634 -0.21495333 0.26239038 0.08452181 0.18540044 -0.18846373 0.30851504 -0.41305003 -0.18175629 -0.24214698 0.31754297 0.37344953 0.037795085 0.030633569 -0.017069735 0.12710722 -0.20133382 0.34441522 -0.16808628
34 0.18189012 -0.5459152 -0.011927732 0.2585997 -0.1107411 -0.60380507 0.24398829 -0.70879847 0.118714035 0.27620938 -0.07074634 -0.27018797 -0.08939296 -0.23068427 -0.22153391 0.07147667 0.21465014 0.41654167 0.14332514 0.10180075 -0.14242147 0.19832323 0.31163818 -0.01180939 0.08190507 -0.412413 0.42646438 -0.47980314 -0.5697181 0.2320686 -0.016660787 0.3699678 -0.08507382 -0.06825534 0.014936648 0.12675549 -0.025021736 -0.16096763 0.38917506 -0.08609085 0.5948586 0.4593462 -0.18478565 0.27730224 -0.027823925 0.5482427 0.22287871 -0.3374466 0.14850856 0.3718276 0.18423167 -0.15896627 -0.6380261 -0.015869265 -0.12426156 -0.18324448 0.017080229 0.44505462 -0.21343201 -0.42087883 -0.08804453 0.44316193 -0.48269418 -0.09498698 -0.05000747 -0.20968358 0.30506313 -0.032871064 0.36441115 -0.34871575 -0.56257385 -0.13422273 -0.11384879 0.22341512 -0.40053266 -0.2740807 -0.20132342 0.62705684 0.22665904 -0.008781867 0.05826912 0.2353853 0.13716011 -0.18296202 0.053192597 -0.3201444 -0.26960364 -0.037964456 -0.28812936 -0.10791296 -0.15530321 -0.263109 0.34205663 -0.23662192 -0.29636872 -0.0107364375 0.023094054 0.3694843 -0.2702158 0.1567021 0.374396 0.25097194 0.47108334 -0.18112461 -0.014581929 0.13630244 0.07058349 -0.26107058 -0.10540928 0.01780409 -0.05892861 -0.2509086 0.029076668 0.03475864 0.3456331 0.055848017 -0.26840234 0.15485975 -0.3312383 0.22351372 -0.009128012 0.09241867 -0.17685999 0.05353333 -0.032328896 0.21177992 0.15108061 0.32622236 0.30866915 0.014595656 -0.24042204 0.06523091 0.13942184 0.020238616 0.7394335 0.021419846 -0.079540886 0.51557964 0.3402387 -0.021718139 0.20039731 -0.16749227 -0.14142907 0.28779268 -0.2518729 -0.29828516 -0.29706672 0.40883192 0.12688148 0.18117583 -0.056229044 0.038256224 0.006609618 0.10262529 -0.043930307 -0.35214788 0.3326042 0.64174485 -0.37687212 0.18514626 0.018800009 0.4069313 0.035684746 0.11558814 -0.10748619 -0.01804745 0.13882771 -0.24013919 -0.18020001 0.12622741 -0.14616644 -0.2169282 -0.16090469 0.040099937 0.07605349 0.31688964 0.41311106 -0.051253006 -0.08926062 -0.12124988 -0.4459476 0.2594549 0.20022431 -0.2175614 -0.2602414 -0.10544799 0.30460337 0.23005295 0.22528608 0.12808433 -0.42678392 0.4492576 0.1708254 -0.39845273 -0.29879445 0.057870556 -0.046340454 0.42210323 -0.03899232 0.36258796 0.13408497 -0.0443716 -0.09346492 0.06778195 -0.590938 -0.19474277 0.15347046 0.3137603 0.31511503 0.08005016 -0.15437159 -0.022927556 0.009482027 -0.11988294 -0.030783795 -0.11849032 0.49053025 0.019381091 0.35742384 0.07295567 0.102368936 -0.13670236 0.25289893 0.2515421 0.35921365 0.2277654 0.019036734 -0.19821705 -0.019186726 0.2999417 -0.25219148 -0.014962836 0.64502573 0.09388393 0.1071977 -0.11001219 0.2622015 0.36075294 -0.28731 -0.032983407 0.11168481 0.1704563 -0.10710985 0.049970362 0.021444967 -0.3871982 -0.28613293 0.3164293 -0.21193132 0.059288554 0.23788214 -0.2081203 -0.1296694 0.40396422 0.044895463 -0.037266657
87 -0.24357902 -0.38116002 0.32803965 0.1531765 -0.30950245 0.14000243 0.17260692 -0.0376595 0.30521014 0.50959086 -0.74564666 0.22140796 -0.2685105 -0.44440812 -0.16729477 0.1718416 0.08079836 0.17124085 0.23365466 0.4033261 0.24191774 -0.030613499 0.24351738 -0.21675736 -0.009383587 0.4789426 0.075748496 0.4889571 -0.68709743 0.14416024 0.24984795 0.16482331 -0.3491408 0.37719384 0.2713824 -0.45291832 0.47456616 -0.30129844 -0.14907129 -0.034392606 -0.24267104 0.48873916 -0.17953774 0.198022 0.56504416 0.04039297 0.24463594 -0.14031117 0.12688068 0.034579962 -0.1579801 -0.3614383 0.10895941 0.28828582 -0.021191956 -0.1491217 -0.46805155 0.34682158 0.29476094 -0.33225638 0.33248404 -0.50631696 0.18110658 -0.53307855 0.1481122 -0.40381432 0.32581455 0.2049184 -0.09194143 -0.24700554 -0.22833127 -0.20332853 -0.04582694 0.66667145 0.39351878 0.02411967 -0.016973289 0.27733758 -0.034065392 -0.02705969 0.23806044 -0.37888342 -0.031794537 -0.07616567 -0.4834902 0.5509512 -0.2767487 -0.13656375 -0.059296917 -0.35835695 0.42658436 0.0071548494 -0.41866347 -0.28813747 -0.0066947313 0.26099426 -0.12215782 -0.515549 0.014997402 0.058013022 0.37445065 -0.10059944 -0.16258854 -0.4180568 0.45857587 -0.18197654 -0.15629597 -0.43308842 -0.011721091 -0.37099075 -0.028371857 -0.19923247 0.16056505 -0.123815075 0.09653713 0.28038242 -0.85559183 -0.10461921 -0.17247474 0.032596637 -0.2119115 0.04260693 0.41715336 -0.0696701 0.11806828 -0.3601761 0.37721574 0.068952814 -0.2289794 0.5987718 0.255131 -0.30094308 0.2711345 -0.08157013 0.032932606 0.2586501 0.17460811 -0.03963255 0.28604975 -0.10755142 -0.12107911 0.025504015 0.19091487 -0.4034254 0.12447179 0.61480784 -0.4336709 0.038197875 -0.0245702 0.16944292 0.53859776 -0.26925611 0.11663996 0.18239902 0.1805904 -0.066485584 -0.23557949 0.21090457 -0.32820395 0.12463009 -0.34229356 -0.14961754 -0.17176914 -0.10118459 0.5316955 0.09968591 -0.15844814 0.45745057 0.22151963 -0.3796965 -0.21318564 -0.07297439 -0.067172 0.36154133 0.07669577 -0.44007176 0.0712517 -0.35068536 -0.2507427 -0.31975073 -0.056311812 0.3423662 0.45786792 0.23861167 0.067393415 -0.6912518 -0.57460237 0.08507998 -0.3924608 0.12288562 -0.2075673 0.013800132 0.19964258 0.0355516 -0.53897953 0.48661458 -0.10270081 0.36830238 0.21507734 0.13427863 -0.073702954 -0.3937723 0.17981434 -0.35318887 0.1960427 0.21468756 0.045431107 -0.18342139 -0.1125302 -0.48458633 -0.10447678 -0.094633006 -0.47560638 0.47580397 -0.011979853 0.17715675 0.24342945 0.106966674 -0.40530893 -0.04459157 0.05964314 0.30560446 0.47560215 0.10588754 0.27244562 0.2557898 0.7628588 -0.12934957 0.62514657 0.47089896 0.54543555 -0.08374376 0.053431276 -0.27591914 -0.34545657 0.09733755 -0.34771496 0.44446594 0.21591462 -0.13160424 -0.28760296 0.39410722 0.033040978 0.4024079 -0.023142993 -0.073826246 -0.18295439 0.26325762 -0.094498165 -0.19154869 0.37688866 -0.55356956 -0.48349148 0.32181486 0.39597595 -0.056850165
69 0.14429544 -0.23771472 -0.16857576 0.13172174 -0.16826333 0.1088189 0.039691348 -0.40477574 -0.041294724 0.057959307 0.12658279 0.09085417 -0.020802774 -0.15139347 0.005727435 0.028365683 0.2265389 0.020258378 0.28122696 0.225261 -0.3239523 0.33176714 0.04373907 0.06578022 0.08729306 -0.2797803 0.13472678 -0.19094333 0.07992118 0.30196354 -0.20431523 0.4454965 -0.03428363 0.30011427 0.32180938 0.1017075 0.1358495 0.053767778 -0.08143448 0.058748215 0.20506677 0.11310523 0.4267374 0.086037576 0.116427585 0.07064208 0.042052183 0.096580975 0.33970124 -0.22066185 -0.03475501 -0.17462954 -0.17268439 -0.021498982 0.018822063 0.18945774 -0.08671463 0.11279599 -0.05168868 -0.11295838 0.14440571 -0.029674051 -0.047860023 0.1048813 -0.23351607 -0.4377106 0.13838221 -0.1119544 -0.0008464398 -0.52741617 0.3784529 0.4086041 -0.39161837 -0.13507092 0.09732946 -0.079694375 0.13345824 0.48919028 -0.13589957 -0.10326696 0.17487861 -0.15361913 0.13577063 0.025593754 -0.31765327 0.2141242 -0.2974368 0.3570854 -0.18506126 -0.3525111 -0.0041879923 -0.08706692 -0.4615184 0.19486289 0.0067828163 0.3902403 -0.35599953 0.049292173 -0.29391167 -0.33818486 -0.0869887 -0.021196445 0.14391916 0.42955086 0.15100345 -0.057467014 -0.339506 0.12067025 0.21843083 -0.5114081 0.31217656 -0.037000064 -0.45635775 0.23811188 0.41148427 0.02091284 -0.22052571 0.09669881 -0.3921814 0.25074026 -0.3169985 -0.012868139 0.2167089 0.2759252 0.21470428 -0.105719574 0.17668173 0.0336748 0.20292543 0.49721706 0.27664575 0.13105182 0.116364464 -0.1917766 0.12382544 -0.00062344404 0.008843378 0.18790571 -0.12959558 0.32444954 0.1961768 0.2954128 0.23306645 -0.0675478 -0.1245774 -0.23748732 -0.28959495 -0.0039553605 0.17848158 0.027320692 0.00065795716 -0.037216272 -0.029004617 -0.055732887 0.3591832 -0.017640486 0.19916409 0.39732182 -0.21356542 0.49649966 0.16088411 -0.4166753 0.058302913 -0.18544905 0.014717119 0.21840088 -0.21450527 -0.30025163 -0.030132433 0.38519672 0.08719102 -0.09614942 -0.36112 -0.12454277 0.37429377 0.028679417 -0.031486332 0.10312145 -0.046749637 -0.04631907 0.12802427 0.15483192 0.04780354 -0.12311908 0.39475495 -0.4710688 -0.0058962936 -0.002426837 0.13146223 0.26387393 0.085718 -0.55208355 0.17062844 0.115638316 0.032594375 0.022514291 0.20917301 0.14797884 -0.122262396 0.34508052 0.4573015 -0.20529625 -0.181751 -0.12473885 -0.34936234 0.0005717462 -0.15460749 -0.2766979 0.0051018964 -0.09557045 -0.104268625 0.03081678 0.06312965 1.0335255 0.38518792 -0.034435097 0.11735881 0.21417274 -0.037026778 0.29628137 -0.12256959 -0.17889817 0.16113384 -0.25327638 0.026938735 -0.007988407 0.1800928 -0.061232418 0.0012710842 0.042681746 0.22723168 -0.021050684 0.3615997 -0.26250246 -0.18363085 -0.2114851 0.1566162 -0.16386876 -0.09982702 -0.097523674 0.038819462 0.26307794 0.12449889 0.26844713 -0.33704132 0.101798005 -0.115518205 0.24930213 -0.29504633 -0.42058182 -0.19469829 -0.046709314 0.08912985 0.42451197 0.36979753 -0.035591576
81 0.16820745 -0.5978527 0.32269266 0.12690605 0.092989065 0.24534585 -0.21690696 0.2676319 -0.09139842 -0.14120026 0.017649267 -0.008998583 0.09653228 -0.15519989 0.033053227 0.06501907 -0.13272953 -0.23229453 0.5347363 0.43163887 0.15079768 0.037515298 -0.37941012 -0.09102188 -0.5482528 0.6203783 0.08088333 -0.06257155 -0.17199007 0.66710883 -0.054539576 -0.0702255 -0.4614337 0.4552361 0.4199774 -0.11243208 0.18400279 -0.30906606 0.4147083 -0.15640011 -0.21097577 0.15395144 -0.67671806 0.15175852 0.030644404 -0.7912895 -0.02190119 0.08013121 -0.5635134 0.5636645 0.11362036 -0.02161207 -0.15854716 -0.026632663 0.2990956 0.107847616 -0.21627033 0.20328926 0.22145404 -0.4212937 0.033323262 0.15815337 0.23915493 -0.016101452 -0.39555115 0.073260106 -0.036589492 0.12691657 -0.11321692 0.18843733 -0.1931122 -0.028000947 -0.5247077 -0.06326887 0.081570596 -0.05226312 0.20812225 0.5196024 -0.54504645 -0.39737323 0.27508274 -0.4406748 0.013790902 -0.22919542 0.38084835 0.7826337 -0.10195873 -0.29454705 -0.35337275 0.036158502 -0.012713832 -0.2046221 -0.3243786 -0.048772033 -0.013187612 0.37602735 -0.36879435 -0.9198931 -0.010410347 -0.007387516 0.36314082 -0.24847323 0.027856665 0.059206225 0.35077882 0.0920788 0.13659139 -0.31145394 -0.5924566 -0.0138586005 0.35500872 -0.37728342 -0.15622227 -0.021418333 -0.20920089 0.0015050353 -0.37043232 0.11402592 -0.26606345 -0.63686484 -0.2252406 -0.15991412 0.17412108 0.16675872 0.31519035 -0.1052384 -0.38650367 -0.21125963 -0.032541208 0.2131091 -0.04053023 0.27753574 0.13511643 0.07353523 0.37111008 0.028968073 0.18813793 -0.04356025 -0.28430372 0.077462845 0.14608555 0.14108482 -0.4115422 -0.3612145 0.15921272 -0.0931467 -0.52583474 0.44720247 -0.08628238 -0.16849601 0.4459861 -0.14330311 -0.28917444 0.05880375 -0.08274667 -0.20714718 -0.2323827 -0.11437578 -0.35922238 0.39618164 0.05833185 0.010614211 -0.51129794 0.09378585 -0.103849046 -0.12657355 -0.05277744 0.013840548 0.029668927 0.45829767 0.017776066 -0.061654355 -0.05311888 0.6948992 0.03939725 -0.45622975 -0.106869474 0.25239635 0.43294108 -0.2062525 -0.018830916 0.58516157 -0.18574406 -0.33206245 -0.23700833 -0.3559843 -0.17932582 -0.31467837 -0.6189529 0.043390952 -0.32915142 0.0017491824 0.30063626 -0.13131107 0.23055178 0.21304286 -0.24688335 0.11389526 -0.32979083 -0.24584308 0.07640294 -0.5036551 -0.26024348 -0.09945759 0.0498513 0.14890617 0.07658487 0.4625983 -0.49761212 0.086517684 -0.43399554 -0.010308481 -0.6842127 0.36218262 0.1284884 0.20014448 0.33608824 0.20978412 -0.4175301 0.20991863 0.46174547 -0.37404746 0.18865655 -0.14348951 0.47249714 0.114689276 0.3349363 -0.11603492 0.51889783 0.048049957 0.05358293 0.77175933 0.15834753 -0.1956335 -0.40649253 -0.12618507 -0.30985752 0.060902674 0.09667276 0.06763958 0.16633332 0.34077206 0.014096176 0.40447178 -0.10453493 0.012845848 0.19902363 0.17179637 -0.18559898 -0.117183074 0.19752082 -0.2666721 0.20606574 0.10762374 0.4679798 0.0016636273
120 0.28488776 -0.36925176 -0.07354747 0.07230866 -0.040634416 -0.10731335 0.0016093127 -0.12616041 0.2322749 -0.0889769 0.046374276 -0.08920746 0.06948678 -0.46108523 0.17907603 -0.08290076 0.05409475 0.35223737 0.058094416 0.030833231 -0.23355442 0.25533092 0.19480634 0.0117569445 -0.28448263 0.19172217 0.1773626 -0.21637928 -0.061885275 -0.2216289 0.16760355 -0.22420426 0.0476808 -0.101183325 -0.02255364 -0.13697456 -0.21053806 -0.23842058 -0.2512838 -0.1995229 0.02389569 0.16928393 -0.10758628 0.19681787 0.20899267 -0.1790963 -0.26940998 -0.14191036 -0.024621606 0.13949516 -0.17424458 0.19483764 -0.311744 0.06367436 0.004358815 -0.32103363 -0.23555315 0.2665733 0.21375039 0.12149891 -0.27931955 -0.3632189 -0.22396179 -0.22360958 0.026735779 0.13800478 0.0512482 0.0062930207 -0.06259547 0.05767577 -0.46491447 0.4736008 -0.20189393 0.090005666 -0.003150996 0.09178955 -0.31843165 0.35957003 -0.211682 -0.122461766 -0.11550244 0.114913315 -0.061238218 -0.2112846 -0.35314053 0.051852357 -0.08904263 -0.13377497 0.06661166 0.06780436 0.0994139 -0.029406996 -0.033578567 -0.05344847 0.09255427 0.09052618 -0.24794084 0.12709123 0.073913336 0.10341783 0.13931246 0.036681306 0.17769466 -0.031606436 -0.16202702 0.05370077 -0.20142452 -0.008731684 0.07018907 -0.39486915 0.25359264 -0.089611486 0.18567945 0.03424993 0.1685704 -0.049798228 -0.08742282 0.22232482 -0.1554536 0.14169933 0.2089828 -0.18993212 -0.06547872 -0.11960281 -0.26694804 0.1581699 0.114054196 0.30143744 -0.041215323 0.08257208 -0.17667232 0.032106463 -0.07687077 0.05344397 0.18043025 0.4444127 -0.2148158 0.1229938 0.07733655 -0.27912143 0.31612626 0.13577273 0.00039021872 0.21965472 0.0869965 -0.08590271 -0.498676 0.05433264 0.12355245 -0.17628492 0.3173235 0.0056432826 0.22837688 0.26343763 -0.033690806 0.08566628 -0.16750441 -0.09955881 0.0048254817 -0.29281348 0.18158759 0.06336765 -0.033332683 -0.36694887 0.3038218 0.11663835 0.15816863 -0.19281004 0.11472968 0.16124716 0.29311627 -0.13548958 0.0033166858 -0.15027983 0.113034695 0.08242163 -0.05005231 0.046586066 0.055187132 -0.06551912 -0.08671078 0.061062172 -0.07507635 -0.09208626 0.26793745 -0.16823728 -0.20935526 0.18969327 0.29914704 0.12154251 -0.02598051 0.02684013 0.038930047 0.22824016 -0.13100787 -0.22460188 0.10899974 0.17235152 -0.23992512 -0.1665042 0.10522326 -0.22470276 -0.09529402 -0.14457276 -0.03144113 -0.06273854 -0.21917446 0.16748123 0.06759887 -0.13885689 -0.2860937 0.047553696 0.011215522 0.10092252 0.0016802608 0.29003692 0.06475785 -0.13048927 -0.13074286 0.13574615 0.08584853 0.08025297 -0.045036804 -0.40566805 0.11550635 0.3271751 0.029873649 0.25355208 0.009747918 -0.06770758 -0.22346485 -0.07919228 -0.024042454 -0.15975411 -0.07628939 -0.101166606 -0.25372493 0.061137665 -0.4774116 0.24411131 0.023549339 0.32381895 -0.02318711 0.22909811 -0.1989184 -0.10829051 -0.061314855 -0.027630834 -0.15302303 0.041550796 0.3018685 -0.1698677 -0.12156693 -0.10428916 0.04500777 0.2547995
58 0.26225412 -0.3478272 -0.06778911 -0.012056042 -0.6288144 0.28928676 0.0034404283 -0.17163679 0.1676167 0.076866895 0.03470157 -0.18098882 0.12399935 0.08774244 0.22999315 -0.2149467 -0.027747653 0.20958762 0.22711463 -0.064157374 -0.2677056 0.10791816 0.27496693 -0.038125847 0.03037614 -0.3279138 -0.36375675 -0.40563527 -0.3063961 0.791112 -0.025240505 0.25693578 0.27893624 0.118544094 0.4836762 0.20503055 0.016236125 0.14012438 -0.32709658 0.0732652 -0.14760464 -0.24250966 0.021482507 0.2586335 0.09118852 0.096587315 0.32109433 0.29018897 0.1647596 -0.027342672 -0.20053643 -0.43212217 -0.043173168 0.1752771 -0.037298102 0.08925651 -0.12548167 0.21622479 0.002396553 -0.09468729 0.37543514 -0.24438979 -0.24156445 0.09310585 0.09413456 -0.22894622 0.2361892 -0.035586566 -0.08533583 -0.09815305 -0.27801946 -0.19780263 -0.22982477 -0.33655903 0.28275377 -0.08328972 -0.33616117 0.427827 -0.6234338 -0.34544817 -0.21984304 -0.122466445 -0.024425179 0.16117476 -0.15408184 0.40774953 -0.052512314 -0.29905844 -0.4687799 -0.43328118 -0.10217829 -0.15004547 -0.25368616 -0.065985516 -0.17573255 0.39795303 -0.3137845 -0.46879286 -0.13198116 -0.23783855 0.5106567 -0.22197114 0.3641566 0.08539871 0.0025733754 0.087298155 -0.15091486 0.10062554 0.033433918 -0.2669358 0.009444138 -0.20552057 -0.19487378 0.2680503 0.12063482 -0.17104307 -0.14170934 0.1039683 -0.5651179 0.5026413 0.14544818 0.05601001 0.04658304 -0.06148082 -0.13047636 -0.23049788 0.30288932 0.30587026 0.27551663 0.28674558 0.494735 -0.013456604 0.17537872 0.52081245 0.019550905 0.17541662 -0.2426428 0.43915436 0.16786274 0.3793576 0.319869 -0.15046786 0.22410777 -0.20227234 0.14245401 0.09522744 -0.25131446 0.05276002 0.14997412 0.06172761 0.24295391 -0.3025941 0.3291714 0.54648364 -0.5311146 -0.17695874 0.11112305 0.42548612 -0.20599766 0.34559152 0.25991338 -0.58268243 -0.29987562 0.014447217 -0.2987085 -0.11689641 -0.22777711 -0.44901112 0.0059290994 0.25499925 -0.0056021437 -0.13054772 -0.15804623 0.23008387 0.45317882 0.2066553 0.25871524 -0.48633948 -0.2290637 -0.020452872 -0.38861883 -0.16200846 0.02058938 0.041976318 0.26662418 -0.77829605 -0.47152817 -0.06619925 -0.27357292 -0.15191664 0.13831992 -0.17346197 -0.050318647 -0.120542385 -0.12591662 -0.43969747 -0.09145914 0.28394908 -0.2651717 -0.38341916 0.3896746 -0.24297228 -0.3614288 -0.46177197 -0.33041444 0.12922801 0.021849267 -0.19342832 -0.08392345 0.39233088 -0.09110074 0.17537676 -0.2548672 0.363161 -0.120973065 -0.054362833 0.07260417 -0.039123505 -0.27109233 0.24031587 -0.2662079 0.07388723 -0.12479967 0.28302917 0.004636152 0.5286985 0.0518216 0.118976094 0.35977566 0.1930419 0.30402914 0.21906646 0.07730189 -0.14985617 -0.29346064 -0.076515004 -0.21033914 0.04493545 -0.22787122 0.16817822 -0.35407367 0.46271956 0.025482856 0.20343223 -0.54832363 -0.19954053 0.46267802 0.25938258 -0.22081098 -0.41774043 0.12898 -0.0064552585 0.14789 -0.016786005 0.13224165 0.03468291
83 0.17294599 -0.578425 -0.08325254 0.14887123 0.14106873 0.31499243 0.009052408 0.11875131 -0.20660084 0.4134668 -0.46915784 0.55242115 -0.23216261 -0.11604551 -0.3831507 0.2251479 -0.50272214 -0.16993079 0.6652359 0.3156298 0.2545375 0.19617547 0.28061762 0.12330105 -0.38260093 0.5981952 -0.1062057 -0.15586266 -0.78779995 0.7636133 -0.1925946 0.07004815 -0.5888209 0.0784869 0.47572425 -0.5526707 0.6185996 -0.12267458 0.07896 0.0368261 0.20054291 0.092220984 0.22455236 0.26712018 0.38270137 0.039648004 -0.26200438 -0.24611522 -0.24958365 0.1322579 0.42102197 0.119323604 -0.48174983 0.18386109 0.14240351 -0.10102994 -0.05008744 0.49481618 -0.080682926 -0.55417645 0.09431344 -0.01511169 0.06712416 -0.45571786 0.62656945 -0.52659297 0.13287412 0.53924364 -0.17853013 -0.118954495 -0.22400585 -0.24331976 -0.3590505 -0.06487057 -0.21729343 0.16969785 0.21908034 -0.021955013 -0.41886547 0.5028203 0.3055874 0.16824433 0.22068502 -0.16412987 -0.4595777 -0.022422867 0.109256856 0.019514889 0.2909719 0.13608406 0.06956906 0.36446366 0.09735987 0.4156438 -0.36916023 0.11395895 0.10546118 -1.0158087 -0.15468505 -0.17809756 0.005650803 0.19137663 0.0301546 -0.19210283 0.27324033 0.2866211 0.17657165 -0.27543458 -0.23864354 0.29268426 0.46058473 0.26726067 0.343185 -0.21206045 -0.19388108 0.2022746 -0.58489835 -0.3473271 0.18116474 -0.27220735 0.50283676 -0.14497264 0.3210504 -0.16165736 -0.13497894 -0.23955439 0.067350775 -0.09455376 0.21014532 0.31360775 -0.017843887 -0.0725375 0.3242721 -0.30314714 0.46352074 0.5310045 0.15363644 0.044725984 -0.14522539 -0.50382674 0.099538155 -0.29071784 -0.0037736087 -0.21240197 0.2507427 -0.2979539 -0.25404525 0.44888407 -0.2739511 0.07342177 0.41961068 0.024971422 -0.5784517 0.04254641 0.3953108 0.05521643 -0.09265914 0.14415072 -0.075869076 0.23260078 -0.1853289 0.23475803 0.060844034 0.22433956 0.30962494 -0.15537775 0.3532564 0.06973097 0.02283567 0.28049392 -0.55313694 0.01944991 0.105078794 -0.015412088 0.46539038 -0.4677635 -0.21736144 0.117007524 -0.17784789 0.03552463 0.39145172 0.6737216 0.4926461 0.3029986 -0.4122217 -0.77508205 -0.1426532 0.12172432 -0.19281527 -0.015048051 -0.46035224 -0.091185324 0.6132921 -0.23318246 0.1279017 0.35983577 -0.04003569 0.21114302 0.05887844 0.19271564 0.011854456 0.4326452 -0.0780219 -0.22331594 -0.5811832 0.13326764 0.7234149 0.021848591 0.00038599342 -0.32619783 -0.6287423 -0.14543477 -0.016737485 0.48728877 0.53093135 0.42768976 0.2516808 -0.15804143 0.1920146 -0.41535228 0.16979213 0.30698726 -0.52988195 -0.16362314 -0.08587793 0.2576736 0.5947183 -0.17776412 -0.3715783 -0.14727496 0.14697766 -0.43929935 0.1772892 -0.24460109 0.019067928 -0.13665025 -0.5534837 -0.13712625 -0.03529056 0.15998492 -0.14028859 0.23131308 -0.49288923 0.06992897 -0.36507177 0.6075166 0.09348347 0.68549174 0.5862573 0.17362057 0.25773633 -0.041585445 -0.461196 0.26106635 -0.07657547 0.18233727
20 0.21890019 -0.242087 0.08905505 0.042423256 0.18156448 -0.31695566 -0.09268361 0.069262594 -0.12949704 0.058151923 -0.10113486 -0.19382834 -0.3252484 0.15363419 0.40778935 0.1413135 -0.034590032 -0.6232458 0.4038715 -0.0957504 0.0427188 0.065051354 -0.047798138 0.8724482 0.09960647 -0.1323385 0.0098768715 -0.29891858 -0.21193811 0.39903823 -0.07727815 0.15546441 0.09239357 -0.098870024 0.011286059 -0.061301995 0.382112 -0.5887365 0.08899577 -0.041112036 0.12427367 0.10237778 0.01940064 0.40971622 0.3104051 0.0955165 -0.08022023 -0.13079138 0.028539235 0.21512327 0.13953097 -0.14365478 0.23993166 0.0047070724 -0.07686975 0.13466409 0.19836107 0.5237371 -0.15632632 -0.23909228 0.07298194 -0.1794192 0.16705427 0.14229384 0.16021067 0.012664339 0.15237612 -0.16044289 -0.08164291 0.082096905 -0.091807574 0.3110605 -0.3039172 0.13582411 -0.047303107 0.025128571 0.020529248 0.644378 -0.46205685 0.38270023 0.23705566 0.00059687847 -0.41601545 -0.31944963 -0.21627322 0.18265441 0.10062427 -0.31095436 0.05200452 -0.23500971 0.41471234 0.05157633 -0.68897474 -0.12922977 0.03551938 -0.23246524 0.049832847 -0.7125493 0.35371304 0.15977843 0.17302065 -0.55281174 -0.17712763 0.4264549 -0.28455433 -0.35438645 0.32044664 0.12895948 0.09392168 0.4004215 0.08492114 0.027407499 -0.07433493 0.107932486 0.1376412 0.3218333 0.23799632 0.17250223 -0.2746421 -0.21452266 -0.016111586 -0.22212002 0.49421647 0.13762036 0.0174113 -0.2723099 0.06964361 0.2597835 -0.31177136 0.19366205 0.048413593 -0.17183755 0.32947364 0.11443972 0.08048945 0.1087665 -0.32528993 0.4746513 0.26237723 -0.10543489 -0.13218664 -0.30992585 0.028329091 -0.38535258 0.076400705 0.00709493 -0.40246642 0.43901026 0.06702349 -0.071538545 0.4011294 -0.28338435 0.17881699 -0.16885902 0.19520426 0.37818044 0.61148936 -0.017498344 0.0032128952 0.42416108 0.039767783 0.33082062 -0.26376542 -0.07201289 0.29559046 0.12696272 0.2137668 -0.7406776 0.17746831 0.10796209 0.2267487 -0.011442865 0.051012665 0.19653767 0.17202787 0.50057566 0.5115826 -0.11372188 0.28385538 0.3389903 0.122751504 -0.014175179 -0.32257125 -0.102638416 -0.09042063 -0.33566388 0.11361368 0.25071198 -0.3028192 0.13435118 -0.41499618 -0.04191728 0.3939049 -0.22887379 0.14404505 -0.049399693 -0.22442035 0.3064439 -0.10214299 0.20298384 0.4763754 0.117929086 -0.24859193 -0.042302404 -0.21736383 0.16308665 -0.21016781 -0.25617743 0.44166744 0.061161317 -0.8309376 0.043911595 -0.21720068 0.32285607 -0.16595297 0.39455172 -0.08300347 0.16443649 -0.011472352 0.36321697 0.80856323 -0.095633246 -0.40869623 0.09407587 0.1824874 0.22270252 0.5972774 0.45888975 -0.26302773 0.2514624 0.36276525 0.45283613 0.20850769 -0.08055933 0.10852506 -0.1550069 -0.2661798 -0.16041477 -0.16743667 0.04158807 -0.19292653 -0.2461919 -0.11844022 -0.34687057 -0.0970015 0.020778507 -0.05423216 0.03918103 0.28733182 -0.18146367 0.315411 0.09393635 0.45727584 -0.023211535 0.13397823 0.02001193
28 0.035377584 -0.3890834 0.14778042 0.3061786 -0.1548635 0.097137436 -0.30358005 -0.26477444 0.18851241 0.3698745 0.17730074 -0.102581725 -0.262758 -0.23745568 -0.033046257 -0.05544269 0.088561215 -0.22883765 0.10900622 0.32251304 -0.35536122 0.4027111 0.3415736 0.24104637 -0.024819795 0.10275912 -0.19636273 -0.43757752 -0.17839448 0.6094294 0.018067127 0.17722082 5.3731084e-05 0.13879265 0.40046486 0.14593549 0.51280236 -0.058112122 0.34487024 0.22538975 -0.07405627 -0.17411742 0.550431 0.46384737 -0.17463967 -0.42187995 -0.043698102 -0.09790449 -0.10367515 -0.21202077 -0.19988374 -0.22845569 -0.1525571 0.23264861 0.20567459 0.13530196 -0.22316992 0.52867603 -0.34847257 0.12605396 -0.072215736 -0.04429113 -0.35617146 0.24604723 0.3232735 -0.51682097 0.35463282 0.5362194 -0.0061937557 -0.24624611 0.07513728 0.33039886 -0.320793 -0.47960976 0.07974317 0.1934479 0.29805174 0.96654546 -0.5745419 0.10067983 -0.16154683 -0.37671328 -0.011266467 0.2176233 -0.40082875 0.5727912 -0.07989691 0.2909466 -0.11077122 -0.46251732 -0.16903067 -0.25305298 -0.26689252 -0.02718513 -0.025100576 0.077564284 -0.2086366 -0.08622294 -0.36383137 -0.25163618 -0.19512826 -0.19463924 -0.1059892 0.3070545 0.033836965 0.1415616 0.15112355 -0.12753232 0.09446812 -0.55878884 0.300125 0.07159778 -0.28420934 0.13381119 0.15474664 0.025850875 -0.09348165 -0.26836985 -0.09808098 0.26293054 0.28811222 -0.40527377 0.19692783 0.009002483 -0.68378323 -0.01817945 0.44625217 0.1642191 0.35987845 0.509277 0.72797114 0.16279481 0.3508088 0.38100916 0.17713821 0.15406042 -0.06139086 0.42710635 -0.29463547 0.5208178 0.34568438 -0.2470477 0.22005129 -0.508161 -0.072869815 -0.1734315 -0.28817263 -0.06625501 0.14548977 0.13372368 0.17451397 -0.2688893 -0.062819034 0.10176681 0.040490028 -0.11843337 0.28139055 0.5680953 -0.15906702 0.21959245 0.11655616 -0.19744374 0.59641975 0.34071794 0.16844648 0.07582821 0.034073822 -0.11035686 0.13624841 0.27944663 0.052189346 0.09322967 -0.5189417 0.14561592 0.28543964 -0.18894301 0.12352602 -0.29276198 -0.20737104 0.10200842 -0.13971129 0.4206954 0.17975917 -0.003431839 0.18876858 -0.4139634 -0.25685555 -0.117369205 0.061459694 0.16860421 -0.11520102 -0.30111828 0.04566165 0.039808378 -0.32693017 -0.16905385 0.2804108 0.18473433 -0.1306988 -0.053744037 0.53381056 -0.0678065 -0.2578214 -0.04315851 -0.4096967 0.029917251 0.009778603 -0.037596967 0.27495265 -0.035762597 -0.055820532 0.34567454 -0.44701448 0.41869548 -0.08250862 0.045410674 0.025556529 -0.1409321 0.05661923 0.12337178 0.029824167 0.32169145 -0.008263923 -0.028994037 -0.44496253 0.009137897 -0.029996509 0.20699307 -0.08547274 -0.009555224 0.018512288 0.020254713 0.28396165 -0.40692508 0.034829665 -0.3069933 0.05532215 -0.17234004 0.11681126 -0.42643294 0.14014533 0.4589107 0.49796143 0.47362554 -0.6850634 -0.045817826 -0.21567868 0.4138368 0.04318159 -0.34207726 -0.31836334 -0.41015148 -0.10676998 0.2441691 0.11088568 -0.013191714
15 -0.23630533 -1.089889 0.085784584 -0.07383807 0.34203386 0.23347098 0.025526451 -0.09262601 0.08664176 0.11372158 0.15836082 -0.054762255 -0.29958695 -0.14944516 0.2390019 -0.15026225 -0.31054473 -0.283251 -0.16298282 -0.12483604 0.74306756 0.08807959 0.036414064 -0.12534882 0.08361407 -0.0071393563 -0.6078456 -0.34108663 -0.48218638 0.15923585 -0.2305521 0.36032566 -0.4702531 0.14744133 -0.06819043 -0.011666766 0.36875007 -0.06361459 0.07247826 0.43455285 -0.48794618 0.28748184 -0.1489553 0.24208197 -0.23275562 0.28099245 -0.27155694 0.0713153 -0.2123087 0.32010588 0.13987094 0.102511674 0.044858903 0.5613375 0.05112825 -0.086347535 -0.13592468 0.16899669 -0.16163397 -0.10993904 0.53277874 -0.3128963 -0.21317583 -0.36131117 0.057724122 0.07749051 0.08084916 -0.15411714 0.47069398 0.44728845 -0.1727582 0.20759243 0.28761876 -0.21066682 0.29958463 -0.10840885 0.09066509 0.76009977 -0.49081987 -0.26132697 0.43717745 -0.23426823 0.02253311 -0.6448375 0.16723989 0.57231474 0.15668617 -0.5187333 -0.06134703 0.16089858 0.15042798 0.12078313 0.09630176 -0.518667 -0.4304214 0.5287923 0.13223489 -0.53334653 0.35266224 0.020843009 -0.23801255 -0.3221234 -0.377761 0.14881055 0.42879495 -0.23860721 0.39628616 -0.4293313 0.04576182 -0.75290644 -0.008054372 0.05503895 -0.21794648 0.14094578 -0.17163712 0.37632722 -0.31697103 0.08677674 -0.28267503 0.041878574 0.29093257 -0.06329473 0.53539246 0.465121 -0.3163646 0.13033067 0.23295489 0.09079676 0.23958126 0.060701918 0.13160773 0.012488095 0.49001482 -0.21853434 0.3404577 0.48201525 -0.29443485 0.090979055 -0.38769937 0.0258172 0.18144454 -0.23197229 0.2292278 -0.44435227 -0.072812505 -0.27125 -0.7703598 0.48149905 -0.36092126 0.2904974 0.3594613 0.0711094 -0.12227059 0.24036618 -0.01881981 0.16842487 -0.27991852 0.17496492 -0.07200182 0.47573304 -0.39762372 0.33119324 -0.007519273 0.0757077 -0.25251853 -0.31134003 0.26497772 -0.37634537 0.17559241 -0.120376416 -0.26292336 0.10858368 -0.06914172 0.019748446 -0.022599302 -0.31631115 -0.33979002 0.10403668 0.07717154 0.06785711 -0.26797903 0.3428718 0.31871608 0.43707108 -0.20313099 -0.60948867 0.13029483 -0.27529666 -0.76053345 0.18695526 -0.30165112 0.49304417 0.015667433 0.17551784 -0.21959394 0.37656412 0.39162502 0.3707818 -0.24802427 -0.02710144 0.07575752 -0.041501377 -0.34261954 -0.16187719 -0.06617653 0.1425103 0.18934688 0.2460986 0.012731858 -0.020693917 -0.5316663 0.2830756 -0.6214328 0.2836993 -0.2908518 0.41609636 -0.2679051 -0.11684004 -0.07494029 -0.29945585 0.44679493 0.103626445 0.14292867 0.15189473 -0.3019904 -0.4597612 0.2786484 0.25550386 0.14995965 0.16955976 0.22024505 0.5820827 0.08191767 0.068513356 -0.34979263 0.034398094 -0.20891212 -0.54909736 0.48135653 0.04729987 -0.0009505614 0.3434912 -0.07738617 0.22955902 -0.18709548 0.065418825 0.2671821 0.43328893 -0.12937002 -0.7800248 -0.08600919 -0.44893876 -0.07176076 0.2512706 -0.44090995 0.0807765
85 -0.11802746 -1.0274119 0.22407375 -0.18281502 0.14975755 0.0050067888 0.037390124 -0.1058256 0.0036441016 0.06186337 -0.054834396 -0.2684314 -0.18034002 -0.046365347 0.3432543 -0.016348587 -0.21494079 -0.00993638 0.116156 -0.24772798 1.000978 -0.081908114 -0.21035407 -0.13144843 0.13928324 -0.031192014 -0.37232837 -0.42842162 -0.61042047 0.13498086 -0.23384568 0.115755215 -0.5103348 -0.17340143 0.041538898 0.22078082 0.26457867 -0.11257103 0.071160816 0.44547328 -0.26487535 0.05410636 -0.017557735 0.35067427 -0.0058012647 0.027293835 -0.028062465 0.047466077 -0.37417242 0.43487448 0.2609175 0.061392806 -0.1614717 0.49280268 -0.036758523 -0.104793265 0.3358894 0.19450209 0.11146853 -0.008254881 0.38368508 -0.11245822 -0.15412442 -0.020539613 0.04031816 -0.15591966 -0.05476602 -0.13125609 0.48303646 0.35736328 0.13757248 0.35107642 0.16970593 -0.21081294 0.39858878 -0.22437389 -0.076943286 0.7194395 -0.31592843 -0.010430335 0.3604084 -0.48750505 -0.09045748 -0.725855 0.07844965 0.099258006 0.2120931 -0.6790816 -0.17583923 0.23983304 0.016606404 0.10146668 -0.45312372 -0.3898157 -0.03771532 0.5461055 0.23875296 -0.62909585 0.3106847 -0.16692631 -0.47791222 -0.55625826 -0.31076968 0.41427985 0.51780003 -0.14538217 0.31103733 -0.18014051 0.008023176 -0.679363 0.29655775 -0.08299718 -0.23807237 0.44475406 -0.0032358565 0.4562044 -0.32124415 0.09543968 -0.48766428 -0.09677941 0.28269583 0.326266 0.13013914 0.26674667 -0.5067889 0.22631988 0.24035977 -0.0529632 -0.30904818 -0.15591341 0.08519732 0.064700216 0.49349275 -0.27756593 0.52951515 0.4287999 -0.36134592 0.0072371145 -0.2551128 -0.058042094 0.52902704 0.33219048 0.12664022 -0.26982805 0.008522258 0.16290085 -0.6681799 0.6606698 -0.43191245 0.06534731 0.20233321 0.09342518 -0.18295944 0.13667946 0.036769953 0.20531122 0.07409531 0.16545326 -0.15616432 0.38269854 -0.36241385 0.38210803 -0.14241797 0.046944138 0.11363971 0.05125947 0.088077515 -0.3183134 0.308799 -0.08922526 -0.22257636 -0.30211735 0.034654673 0.018421914 -0.14462173 0.035181627 -0.25288522 0.36160865 -0.0337524 -0.1730455 -0.6768825 0.16305667 0.45303974 -0.10777933 0.025499562 -0.58108264 0.19830433 -0.19582234 -0.7562748 -0.050898056 -0.10642585 0.4582112 0.4319665 0.39956975 -0.2523025 0.5180105 0.36127675 0.33578795 -0.33563367 0.022906296 0.11945266 -0.2573809 -0.527432 0.12233821 -0.016336195 0.2515993 0.09259313 0.116574444 0.1586932 -0.31047902 -0.37795648 0.2560473 -0.30053005 0.19046748 -0.3189983 0.43398663 -0.2549022 -0.05790174 -0.057147503 -0.13478826 0.021780424 0.011974596 0.23323335 0.10995677 -0.1435749 -0.38636792 -0.026372809 -0.07897502 -0.025703853 0.33938426 0.32537585 0.3905338 -0.051926598 -0.33591366 -0.44931123 0.090466656 -0.34465703 -0.56069297 0.18663567 0.1868258 -0.17534313 0.5184999 0.10448551 0.15848608 -0.3368988 0.045764416 0.39246705 0.26937467 -0.30826744 -0.8296354 -0.51431125 -0.41119835 0.052564725 0.09585138 -0.29629886 -0.024116343
14 0.13478372 -0.16068833 0.14193428 0.021378256 0.12567596 -0.0852508 -0.26435345 -0.4843097 0.60260355 0.45466965 -0.16037633 0.14944234 -0.22251852 -0.34637442 -0.19782308 -0.12986635 -0.2601677 0.22964728 0.32779235 0.16906954 0.06951241 0.37166604 0.26957485 0.31895846 0.04993477 0.14084099 0.32756603 -0.06656039 -0.4197961 0.22366829 0.07573548 0.13782972 -0.049398173 0.3514673 0.22199118 -0.37761483 0.055060696 -0.10710433 0.063296594 0.29486012 0.11617196 0.28590208 -0.16120765 -0.04338436 0.08452556 0.11453868 -0.23405358 0.16977386 0.22840805 0.41154176 0.06814905 -0.02610463 -0.23827411 0.091999896 0.34477067 0.1575288 -0.095501214 0.37443173 0.10729192 -0.074974105 0.17966793 -0.10066647 0.032211203 -0.19661446 -0.38950437 0.019395856 0.061611816 -0.18385088 0.14998986 -0.2528383 0.06649984 0.22715293 -0.18874496 0.0914417 0.17837748 0.195358 0.077299826 0.22382462 -0.07327254 -0.5217454 -0.2812138 -0.0013363976 0.25050253 -0.1447479 -0.4540658 -0.09682767 -0.047910355 0.11977456 -0.3301818 -0.2487293 0.12843846 -0.05680584 -0.0011813951 0.10461698 -0.17397894 0.56820476 -0.5365917 0.16650125 -0.16636734 -0.3938453 -0.123379804 0.3119809 0.27619973 0.15786754 0.028683629 0.194734 -0.114213854 0.16126768 -0.09254151 -0.32684916 0.06597188 0.085311115 -0.15085852 0.00090045395 0.5871605 -0.15445778 -0.37839982 -0.046112727 -0.46655297 -0.06899441 -0.20649922 -0.49314708 0.22692046 -0.46034497 0.2478558 -0.23885453 -0.19870444 -0.3366072 0.14745754 0.20295037 0.34954 0.10693874 -0.13491397 0.08227452 -0.17035766 0.32410163 -0.285818 0.16658562 0.018038312 0.43791208 -0.21600309 0.3825912 0.047500156 -0.01723537 0.22189836 -0.19914389 0.011480612 0.18479948 0.07754185 -0.087784186 -0.0914492 0.47957537 -0.29789597 0.36580953 -0.07272532 -0.043230604 -0.3713022 0.27714607 -0.41334772 0.45932105 0.12521018 -0.036449302 -0.07596775 0.15286313 -0.18621917 0.12642072 -0.0688312 -0.2825226 -0.2272621 0.25459063 0.18115921 -0.14614096 -0.74192834 0.0949692 0.02800258 0.13616928 -0.38686368 -0.32406095 -0.02356318 -0.46403602 0.082234636 0.45598888 -0.16549496 0.23663253 0.2562054 -0.3423783 -0.25302422 -0.24638298 -0.3390653 0.3938592 0.05105694 0.11738819 0.445641 -0.073657386 -0.14859356 -0.17063695 0.5292194 0.46418202 -0.20593892 0.38286257 0.23125264 -0.35297805 0.1573844 -0.112947665 0.011438208 -0.07377397 -0.30697176 -0.3905692 -0.06905133 -0.5221305 -0.18230955 0.29712886 0.2593796 0.68103534 0.28692648 0.16241969 0.092672236 -0.08578063 -0.2617649 0.47237056 0.0691767 -0.06287225 0.3491502 0.018247344 0.033431318 0.2948928 0.3604846 0.029908594 0.12240796 -0.14694875 0.06854629 0.3607093 0.06071995 0.07922217 -0.23620999 -0.0663214 -0.39109293 -0.12585127 -0.3307709 0.16867098 -0.28976235 0.257482 -0.0334703 -0.028224152 -0.08431687 0.08082035 0.108750775 0.11460851 -0.18943727 -0.29027292 -0.15971555 -0.17784667 0.33992592 0.5738626 0.18537803 -0.13324663
38 0.35456625 -0.71508527 0.017743316 -0.07256336 -0.3167207 -0.3648719 0.08833954 0.12515938 0.5481614 0.23603573 -0.43913817 -0.00042320532 0.4390113 -0.21723837 0.030617103 -0.25357178 -0.41741455 0.57895476 -0.07072777 0.023054251 0.30451524 0.35956657 0.15320371 0.0030231979 -0.49438548 0.33461136 -0.11569006 -0.5211433 -0.02864506 -0.03868717 -0.1933435 0.007447279 -0.32692796 -0.22318548 -0.06487512 -0.1052184 0.29528755 -0.12451358 -0.391752 0.018949669 0.15123011 0.2671621 0.2387552 0.5981651 -0.24441761 0.12819955 0.13336001 -0.18897556 -0.3384028 -0.35992685 0.13180669 -0.2897914 -0.51007855 0.12166307 -0.1531997 0.083831936 0.45623896 0.06827628 -0.36274448 -0.4506893 -0.06782931 0.2479497 0.059419163 -0.14508799 0.28146783 0.4060773 -0.036030166 -0.040690742 -0.18169418 0.05805591 -0.036196124 0.13258994 -0.018584171 -0.4794029 0.21101955 0.15811403 0.32547358 0.68291175 -0.1483199 0.24055226 -0.062925644 -0.28074077 0.18335974 -0.41734633 -0.07898631 0.110440865 0.24781792 0.06579006 0.082863025 0.14252146 0.44769424 0.0532827 0.13194346 -0.26844364 -0.627282 0.5614485 -0.15215386 -0.21969785 -0.049057037 -0.05538502 -0.54313076 -0.18443604 0.5874039 0.30293593 -0.16580762 0.3623614 -0.35117322 -0.17668268 -0.38413203 -0.11559545 -0.0080591105 -0.1041747 0.29820842 0.06952467 -0.13757849 -0.15084809 -0.6776282 -0.12194538 -0.24970149 -0.1648694 0.0063990583 0.03725126 0.052149545 -0.0517514 -0.078968845 0.21814655 0.023018118 -0.033544663 0.2479142 0.39647773 -0.34185195 0.6355052 0.5986449 -0.099433176 0.73267865 0.22648065 -0.54855555 0.4181135 0.17931937 0.022742053 0.13423516 -0.10780658 0.596614 0.008545075 -0.42951697 -0.24708082 -0.3883498 0.23147312 -0.30378383 0.17573194 0.18319885 -0.10528238 -0.25202665 0.7587544 0.05487777 -0.5766576 0.41878074 0.21906383 -0.25731802 0.48491818 -0.19404507 0.3991985 0.6774506 0.2919634 -0.13409328 0.21662255 -0.033294 -0.0719725 -0.15233117 0.14306314 -0.3777238 -0.045308664 -0.068349935 0.05970441 0.22444448 -0.39253056 0.41093647 0.15668252 -0.54624975 -0.28647023 -0.66778654 0.14968985 0.5403792 -0.4514004 0.1211656 -0.8548702 0.29164833 0.11047122 -0.35307115 0.37697902 -0.07186219 0.42074832 0.18375972 0.08337615 0.019732403 0.70831674 -0.2440799 0.16572383 -0.14875917 0.3638655 -0.048964024 -0.0640906 -0.5561987 -0.0967189 -0.13404636 -0.45206556 0.041922767 -0.37347645 0.3147874 0.15712924 -0.09528979 -0.10142689 0.09504951 0.20451985 -0.32512656 0.009984854 0.30050874 -0.053889677 -0.10448277 -0.042216506 0.2501824 -0.5337412 -0.02607809 0.27587944 -0.13790596 -0.37660035 -0.06268431 -0.0411413 -0.22619392 0.3263797 -0.07320889 -0.039147083 -0.011782753 -0.59585667 0.113935865 0.013233484 -0.25223053 -0.07715781 0.13825558 0.32364908 0.2942833 0.54373294 -0.1896974 0.32602164 -0.51912135 -0.6157377 0.53364104 0.33319756 -0.5225397 -0.27827838 -0.059778113 -0.1344647 -0.58626556 -0.34348947 0.28238177 -0.09253275
24 0.18693791 -0.13486473 0.27923676 0.023353666 0.008180002 -0.62017804 -0.015670238 0.10782005 -0.16087408 -0.036286373 -0.12725863 -0.07995637 -0.21544029 0.15394214 0.3155708 -0.43930727 -0.0034030774 -0.5177372 0.61473614 -0.2060131 0.3146687 0.0060655475 0.33845377 0.6955623 0.11528037 0.16174076 -0.19237445 -0.36734745 -0.2681938 0.4386252 -0.20522891 0.34702066 -0.080711514 -0.18526481 -0.19410388 0.062229637 0.22435468 -0.4219738 0.19127461 0.2718235 0.17384002 0.28404048 -0.015532051 0.057766035 0.29696345 0.24994525 -0.29259545 -0.16974816 0.18914723 -0.039452184 0.24389595 -0.4254587 -0.079539634 0.19151767 -0.06206733 0.055070426 0.35683972 0.19151974 -0.025873743 -0.4602346 0.17786326 0.11318554 -0.02992151 0.12176614 0.27469847 -0.07641596 -0.10290122 -0.114249855 0.06833605 -0.0031831763 0.07342985 0.21580079 -0.24942593 0.276323 -0.001452781 -0.21584459 -0.46577 0.3777692 -0.12741676 0.5435748 0.09009136 0.3651329 -0.5172441 -0.32351702 -0.1611465 -0.015979186 -0.023607412 -0.037103873 0.20241827 0.18938261 0.22827984 0.052511584 -0.4368703 -0.4056422 0.1610921 -0.00031458004 0.49375644 -0.4837229 0.56971055 -0.22367716 -0.36087447 -0.55415034 -0.33481875 0.27025312 -0.009382528 -0.42593956 0.33494273 0.19453971 0.24825512 -0.04438622 0.018778969 -0.09633068 -0.05370185 0.0076934984 -0.046526775 0.13634595 -0.12617856 0.3051595 -0.44597164 0.12836856 0.23279999 -0.07332745 0.37873775 -0.37421677 -0.06303781 -0.18447965 0.50811136 0.5309845 -0.34603548 0.25524148 0.19893573 -0.118324414 0.1479623 -0.023677489 0.45017454 0.26814467 -0.666895 0.5337047 0.7743634 0.029031042 -0.41514826 -0.05608815 0.32546481 -0.28250062 -0.14322561 0.19893509 -0.44290093 0.50030637 -0.15047088 0.0013680079 0.4476419 -0.20699613 -0.110396 0.37518874 0.17563853 -0.055063073 0.5984691 -0.05604252 -0.10570234 0.4169367 -0.31026614 0.19907781 -0.100195386 0.14776048 0.05090706 0.18205844 0.24065301 -0.6131712 0.37443262 -0.3206877 0.23294745 -0.2843348 0.25644785 0.1379758 0.42115805 0.39797157 0.20316343 -0.018789658 -0.26846322 0.45487282 -0.5523673 0.14820239 -0.18579474 0.038610984 0.014174015 -0.23818915 0.22124244 0.3120966 -0.16967061 -0.06994913 -0.33185464 0.29629105 0.12632711 -0.11405493 0.117230214 0.26921287 -0.18445653 0.4615754 -0.032648522 0.046479553 0.47147453 0.15342665 -0.36254936 -0.21939284 0.0639401 0.19531408 -0.68515074 -0.48122385 0.2760246 -0.27896318 -0.26964608 0.53183913 0.3496415 -0.19471258 -0.27093634 0.2882469 -0.062323123 -0.24809301 0.18637726 -0.12764835 0.24035706 -0.2179299 -0.27673283 0.2564415 0.095909335 0.33786795 0.07383533 0.2854007 -0.4476998 0.5507462 0.24193181 0.014658124 -0.13321282 -0.28493923 0.22173755 0.20747526 -0.44186175 -0.24195059 -0.010815916 0.024194432 -0.2883288 0.16258553 -0.21202132 -0.49006873 -0.22884716 0.12266891 -0.16462599 0.19325966 0.36722967 -0.13685142 0.24830899 0.08194174 -0.08423056 -0.18740149 -0.03453993 -0.06420452
31 0.33895212 -0.32252967 -0.110404514 -0.12193168 0.36413255 -0.57740885 -0.6617533 0.112542406 -0.27277267 0.5370026 -0.059055798 0.11547727 0.19487265 -0.14336687 -0.0893389 -0.28351372 -0.26117626 0.42761168 0.7094784 0.21057066 0.34845716 0.062409937 -0.08025015 0.03841729 0.20435905 0.41944215 -0.028105658 -0.21706204 -0.47742352 0.79191583 -0.065206245 0.68288606 -0.6440985 0.374779 0.25483868 0.34120172 0.47561347 -0.31483153 0.15315913 0.3217734 0.1483366 0.46236113 -0.44898957 0.116261914 -0.15909344 0.2911245 0.16014647 0.07241125 0.18806458 0.21891601 -0.22008552 -0.5395668 -0.033338293 0.58430856 -0.2455811 -0.0064862543 0.15107521 -0.029797815 -0.43686676 -0.58592427 0.707212 -0.32429913 -0.13275388 -0.6127066 0.15863295 -0.34299508 0.036795735 -0.28577426 0.3840521 -0.2756445 -0.34456158 -0.45121247 -0.37159947 -0.037883647 0.004364709 -0.22872576 0.8878395 0.22029768 0.07615705 0.08556299 0.09345203 0.12278008 -0.22071506 -0.026797093 -0.2668293 0.46992588 -0.09667798 -0.5208571 0.11809334 -0.1634986 -0.22351007 0.50302947 0.027950991 -0.3356807 -0.5528984 0.46533126 -0.06889615 -0.7501972 0.09697286 0.10703484 -0.42189506 -0.4179208 0.06216924 -0.22891682 0.24047053 -0.12169373 0.0027287959 -0.025648873 0.11731717 0.09400584 -0.8663151 -0.52104044 -0.17310733 -0.0791922 0.14319688 -0.09899278 -0.76790905 0.3064597 -0.4902461 0.2894136 -0.23009513 0.025393855 -0.020386217 -0.21499623 0.024212142 -0.1078445 0.03180048 -0.17671284 0.09894197 0.38981393 -0.19528124 -0.25737345 0.048170295 0.13156311 0.9677132 0.34647673 -0.5823349 0.49993336 0.6060361 -0.30723014 -0.09026041 -0.06718952 0.36126378 0.144907 -0.16881052 0.42880276 -0.38249075 0.5518134 -0.26374802 0.37015513 0.34081295 -0.3524323 0.13338777 0.751227 0.19392046 -0.14608972 0.506355 0.2645482 -0.29580367 -0.09650528 -0.021539466 0.033911362 -0.22392681 0.3542289 -0.17789315 -0.08642214 -0.24598277 -0.36523512 0.15874247 0.17098565 -0.17330651 -0.08215346 -0.2654896 0.57335347 0.3353538 0.08874002 0.3775824 0.19103669 -0.6125684 -0.08696557 -0.54589665 0.25186205 0.44074038 -0.039553244 -0.3328208 -0.80333644 0.55191 0.17649955 -0.40046462 -0.19508365 -0.15770186 0.14527175 0.30786678 -0.5993032 -0.18507753 0.6505443 -0.5806753 0.2446177 -0.33084145 0.1750551 0.31607652 0.29235178 -0.55406296 -0.35448277 -0.20696227 0.11154499 -0.06704849 -0.17414379 0.20556116 -0.24048315 0.16674612 0.4372315 0.0074125235 0.1659184 -0.13780591 -0.05191786 -0.18044296 -0.14339554 0.10491003 -0.17343472 0.25782448 -0.3535488 0.27574912 0.36185962 0.256457 0.23438458 -0.10366662 -0.14908014 0.08157593 0.9520652 0.5926384 0.19687039 0.19835046 -0.21917877 -0.38875666 0.49579945 -0.75071377 0.15963879 0.1559043 -0.24748783 -0.2718292 0.16180973 -0.019877523 -0.027796227 -0.063249886 0.015824182 0.27925634 0.63739204 -0.14481248 -0.24549414 0.026245253 -0.3667379 -0.660106 0.6179053 0.36979803 -0.14309789
80 0.28458068 -0.73797053 0.13930057 -0.07911821 0.12852958 -0.2900084 0.15468438 0.1559227 0.4271207 0.061370928 -0.58158046 0.22317055 0.2436912 -0.11834486 0.073059954 -0.40598705 -0.75452906 0.40634826 0.010081693 0.021574153 0.14365956 0.4507635 0.3143264 0.031626046 -0.5809248 0.483952 -0.1834356 -0.40561303 -0.19176337 0.16456905 0.06299823 -0.048487134 -0.39707768 -0.33555105 0.029101422 -0.12331586 0.53457475 -0.0968309 -0.31937584 0.047079317 0.25675765 0.14980417 0.21319811 0.50731236 0.18407014 -0.20082828 0.017220236 -0.22305655 -0.3790948 -0.396085 -0.03769135 -0.28482518 -0.3543831 0.53661114 -0.06422605 -0.21182321 0.08736596 0.15120803 -0.26020437 -0.46403897 0.09432696 0.20322569 0.03578833 -0.30802983 0.22014745 0.32600328 -0.52860016 -0.18882099 -0.18883932 -0.064408004 0.082117856 0.2789449 -0.38793337 -0.47527027 0.20807354 0.37860522 0.5017715 0.18690187 -0.46184 0.25440434 -0.21137549 -0.14776999 0.08157909 -0.23602869 -0.31548744 0.1293597 0.36018336 0.20793241 0.4069409 0.24880901 0.29380062 0.28812963 0.4664664 -0.22628225 -0.56333154 0.3167782 0.10663335 -0.51027125 -0.2574689 -0.37261605 -0.4409821 -0.10610022 0.3068039 0.12075782 -0.039135657 0.22197568 -0.046912316 -0.022603163 -0.4425101 0.06991389 -0.15086843 0.094245575 0.4135406 -0.20959559 -0.33638775 -0.29739958 -0.5835665 0.11160251 -0.050181016 -0.38142896 -0.16423838 -0.08667733 0.19499892 -0.10799769 -0.18220696 -0.008572749 0.37442464 0.03933175 0.05532247 0.42279997 -0.26779985 0.4408655 0.4360259 -0.009971726 0.60172534 0.23956685 -0.49136904 0.6155999 0.10584317 0.1165101 0.04816843 -0.5189598 0.75432104 -0.23265041 -0.037439477 -0.31834078 -0.421856 0.2305833 -0.20374666 0.38308996 0.35728794 -0.23814423 -0.21152265 0.72721314 0.019346433 -0.27535444 0.15779279 -0.11676598 -0.053689346 -0.032411143 -0.3625719 0.4867354 0.7248931 0.18100157 -0.14814684 -0.076722175 0.19304839 -0.18455727 -0.16203722 0.33072475 -0.14833578 0.17125116 -0.075086206 0.08247236 0.31166357 -0.37558892 0.4374354 0.21613015 -0.5525003 -0.36850965 -0.28493232 0.32531425 0.21837552 -0.47856498 0.40238062 -0.94790226 -0.016639356 0.071535565 -0.43266237 0.68094593 -0.4637992 0.28854606 0.023902172 0.18376482 -0.043890413 0.65336794 -0.36402124 -0.027044313 -0.31337935 0.16784817 0.0039555663 0.26144022 -0.48993137 -0.28402624 0.025860542 -0.4964853 -0.19656518 -0.32811886 0.032887366 0.3501263 -0.022481408 0.15756918 -0.026454622 -0.05388067 -0.3424586 0.24182287 0.31620353 0.11652307 -0.21591231 -0.4915158 0.019156214 -0.13363387 -0.19411899 -0.087656066 0.069119304 -0.12035922 -0.069948584 0.040687684 -0.15817972 0.053924333 -0.20816134 0.23782852 0.11845585 -0.40182364 -0.098848134 0.048966594 -0.53761697 -0.26810744 0.0743123 0.3843875 0.22396149 0.50607395 -0.30453166 0.35487464 -0.5762724 -0.68512505 0.56442875 0.3448301 -0.07773287 -0.30684897 -0.14278065 -0.083645605 -0.70066357 -0.47813573 0.009504107 -0.022176616
66 0.2422844 -0.61756605 0.45397967 -0.1680848 0.096919306 -0.21554999 0.08320279 -0.21760438 0.25419807 0.37015897 -0.37601072 -0.3130571 0.60155064 -0.2090704 0.28655934 -0.22129072 -0.08173959 0.24690385 0.10441575 0.15319559 0.15979356 0.22692387 -0.0046494543 0.33038864 -0.10815801 -0.22766134 -0.021119047 -0.24828002 -0.54985744 -0.033026416 0.3270883 -0.7238374 -0.34275618 -0.11229858 -0.16195785 0.5341112 0.34820065 0.17048211 0.4420678 0.3170631 0.96929896 0.18648458 0.4546392 0.33838093 0.3714389 0.006388091 -0.38912585 -0.13633412 -0.23062976 0.23899905 -0.12465281 0.39469323 -0.58199275 0.17986687 -0.19388586 -0.103575185 0.27225336 0.5002701 -0.20872848 0.3834447 -0.2527013 -0.18335058 -0.34442973 0.0754114 -0.08936272 -0.5239812 -0.16340414 -0.12461793 0.31823316 0.1343241 -0.123067066 0.12191382 0.16660632 -0.81478506 -0.024807878 -0.09783668 0.08791594 0.5846693 0.15381238 -0.0646816 0.05550046 0.30971184 -0.07974035 -0.010530778 -0.2786773 -0.47452128 0.10646648 -0.17334832 0.44746497 0.110728666 0.04400483 0.008221455 -0.36378413 0.45106718 0.36074555 0.26526245 0.034287494 -0.24820542 -0.27196375 -0.17890419 -0.3706651 0.094245374 0.30562925 0.26253322 -0.02290887 0.3797963 -0.12729037 -0.34602642 0.07452621 0.04565228 0.39298144 0.11102966 -0.04830727 0.014266556 0.08566889 -0.04678848 -0.36433157 0.16869313 -0.38857704 -0.20771286 0.30533612 0.24435428 0.36301112 0.019305317 -0.45470557 0.11277033 0.46447536 0.2585589 0.21297151 -0.029740024 -0.2035796 -0.3612987 -0.01224291 -0.25577202 0.6326612 0.27821678 -0.37949446 0.22466199 -0.119429976 -0.34846655 -0.04919667 -0.006524341 0.27970695 0.40941125 0.023858773 -0.43407828 0.011891829 0.13373211 0.08748795 0.29347712 0.072565906 -0.18864593 -0.20427342 0.33553448 0.092208266 0.2015969 -0.29987547 0.12985615 0.012234655 -0.027776476 -0.20951764 0.035660926 0.19187967 -0.3004599 0.11202992 0.15360796 0.24349077 -0.48619112 0.24552047 0.5261215 -0.29024842 0.15363112 -0.06502204 -0.40285257 0.57979 0.41656643 0.11885582 0.19421306 0.09194344 0.25140533 -0.36842078 0.3355101 0.19198649 -0.28553274 0.14930844 -0.51650804 -0.18603519 -0.004951446 0.16436478 -0.17336701 0.12574065 -0.034052074 0.23167796 0.452006 -0.18979418 0.20041469 0.30416045 0.58418494 -0.54348236 0.011897275 0.19280058 -0.24254864 -0.73496145 0.0015792676 -0.20497955 0.116653 0.1065948 0.16806264 0.2934461 0.2895827 0.054868836 0.09142161 -0.23064624 -0.2320173 0.30421737 -0.015092257 0.26599476 -0.010010198 0.47918835 0.15795785 -0.6635441 0.0059435773 -0.40538684 -0.56429577 0.03991788 -0.16052414 -0.07200514 0.0727485 0.027610347 -0.14935756 -0.37611026 -0.063764505 0.5321227 -0.24682954 0.16826849 -0.079021424 -0.03553091 -0.34308168 -0.6540123 0.43198627 -0.2962193 0.28007433 -0.24127749 0.16786666 -0.8363624 0.3462538 -0.1804617 0.51797086 0.5583188 -0.41366246 -0.2704892 -0.117612205 -0.023306683 -0.072373174 -0.16783658 0.09735629
55 0.34745213 -0.32452577 0.37803715 0.26811484 0.059806287 -0.19489206 0.1625013 -0.47635567 0.3965929 0.37516767 -0.067726046 0.18729636 -0.45165226 0.17319222 0.14886361 0.059755735 -0.29172328 -0.18958452 0.338306 -0.058612008 0.22298554 0.17927156 0.20444918 0.52805054 0.04660622 -0.14244601 -0.104257226 -0.40165526 -0.042970907 0.5799477 -0.1688082 -0.03303838 -0.053122055 0.3396634 -0.0029787105 -0.02786364 0.09946891 -0.3621836 -0.0125688445 0.13688922 0.37832946 0.5711718 0.00808854 0.23713559 0.57841736 0.39760515 -0.16233478 -0.17075175 0.07050443 -0.33353946 0.013321658 -0.3037305 -0.0665281 0.053495556 -0.30820265 0.27748945 0.5692285 0.33654305 -0.09124313 -0.26513886 0.62066835 0.2502906 0.17442423 0.07993979 0.4979123 0.06043478 0.37943605 -0.28410122 -0.24073863 -0.13941221 0.080740206 0.07891422 0.07705332 0.43548542 0.16685309 -0.4800096 -0.06923329 0.33277935 -0.2915894 0.4953399 0.054096133 -0.12085779 -0.43841752 -0.48913968 -0.19594868 -0.029437218 -0.07605312 -0.28487048 -0.14407748 -0.2144671 0.44047305 0.3156368 -0.5419846 -0.38293293 0.2608987 -0.21242765 -0.010022243 -0.12619856 0.14730497 -0.15004113 0.11081045 -0.31181803 -0.09193217 0.20359169 0.006621384 -0.7273692 0.18809906 0.12284251 0.30376577 -0.05441344 0.005299931 0.28175452 0.030972179 0.17896591 -0.061500117 0.38327172 -0.048749387 0.019755855 -0.44886076 -0.18411177 -0.12066969 0.06806281 0.3964678 -0.15805542 0.039476946 -0.16649996 0.4132346 0.043537088 -0.2833379 0.2963154 0.15962563 0.13455597 0.7467422 -0.002869707 -0.106016114 0.2881446 -0.6118519 0.547132 -0.0026398702 -0.26589775 -0.027218321 -0.5269979 0.35664746 -0.04193229 -0.26081026 -0.25001407 -0.17770195 0.0948256 -0.074769095 -0.009780887 0.07242376 0.09558324 0.09605973 0.13528304 0.25703278 0.4218691 0.57938147 -0.28420448 0.15337268 0.40474758 -0.40171483 0.50112855 -0.17367518 0.009535224 0.1799146 0.16610438 0.29429805 -0.8623624 -0.003197795 -0.20351154 0.2346406 0.010301331 -0.12583613 0.14610782 0.41336083 0.7740283 0.22455539 0.22165962 0.22164689 0.1446625 -0.09158267 0.0050187483 -0.21459843 -0.396383 0.23477034 -0.56734973 0.31767347 0.24782552 -0.11928966 0.39040756 -0.29742122 0.4433119 0.39107066 -0.14744641 -0.008016217 0.12577139 -0.2385257 0.40684968 0.09934908 0.6564399 0.59967333 0.026882922 -0.031472277 0.117481746 0.21609275 0.08793618 -0.6709747 -0.20507224 0.17622356 0.012082281 0.072738916 -0.04641821 0.28090748 0.105732836 -0.04530963 -0.0013471735 -0.079160884 0.08358097 0.2415927 0.12584569 0.25325224 -0.09067224 -0.48103958 0.18228301 0.07992725 0.26413825 0.06395041 0.23353393 -0.2554564 0.36732152 0.3047003 0.17010497 0.28559822 0.07133927 0.09155427 0.29418385 -0.45879638 -0.3861492 3.780152e-05 0.03834634 -0.018882101 -0.07429154 -0.0024306725 -0.3245046 -0.21861528 -0.09911124 -0.33824077 0.1553228 0.41579914 -0.52223325 0.22692761 0.015561049 0.08761484 -0.526911 -0.31273267 0.02869452
79 0.4583422 -0.7651241 0.51142794 -0.22924735 0.48850584 0.045242574 0.067871846 -0.18799672 -0.5849252 0.1451578 -0.34316704 0.042599443 0.33757725 -0.05138296 -0.05620791 -0.07236575 0.22382149 -0.4007135 0.6196421 0.26228738 0.11422589 -0.19548935 0.13557069 0.029954461 -0.10893339 0.1055069 -0.09192724 -0.6001228 -0.04741929 0.6169152 -0.012613022 0.16719414 0.03857493 0.18581612 0.27698243 0.06926045 0.32535803 0.4599169 -0.08608816 0.29810858 0.61698955 0.48174536 -0.21762817 0.12030249 0.20479746 0.22842975 -0.20524657 0.17210515 0.14108115 0.22265911 0.17220293 -0.34629652 -0.4868204 0.35351703 0.26491797 -0.08150499 0.3582305 -0.476401 -0.019146401 -0.1288914 0.139847 -0.27040672 0.13987084 0.023771713 -0.32200336 -0.23577541 -0.18375753 -0.24623424 0.47523856 -0.66637605 -0.06646542 0.24811175 -0.48202428 -0.26045635 -0.40036455 0.19382782 0.4324179 0.5772057 -0.8450238 -0.22702464 0.15970126 0.08470912 0.21187401 -0.7735067 -0.60132456 0.0665343 0.1598393 -0.044531446 0.16497497 0.2393789 0.2997803 0.1896265 -0.32025966 0.62817174 0.054473244 0.5550916 0.17380895 -0.294049 -0.45969236 -0.13842341 -0.10387776 -0.19458099 0.2592442 -0.057788566 0.3235535 -0.040475607 0.15153 -0.12815458 -0.0074693155 0.41669893 -0.21364172 0.47382686 -0.13433717 0.30597293 0.22705683 -0.1409347 -0.94636995 0.5235509 -0.543373 -0.06699403 0.0968222 0.059095666 0.18541162 -0.1951691 -0.012391249 -0.29648018 -0.3537411 -0.4553397 0.12790304 -0.07301156 -0.09354633 -0.36210984 0.48585916 -0.32643336 0.7080532 0.041250736 0.286353 0.14488022 0.2074266 -0.4067213 -0.008995724 0.22404741 0.19418778 0.29666394 0.1766174 -0.44109875 -0.20881352 0.7991665 0.43399683 -0.07889673 -0.18287681 0.05847494 -0.53771394 0.41597682 0.3240018 0.10960043 -0.25840473 0.051481806 -0.020258542 0.43448383 -0.011402873 0.019716227 -0.14134265 -0.098861165 0.22079596 0.3449249 0.5117969 -0.9499268 0.19870417 0.70882374 0.36162028 0.22024716 0.11019796 -0.37066376 0.72070104 -0.047677316 -0.66617197 0.46070376 -0.34285262 -0.3407118 0.09569936 0.3633302 0.12423733 0.045132596 0.00025689774 -0.72976357 0.023451094 -0.049984165 0.04652281 -0.13762726 -0.08608807 -0.33046225 0.38304478 0.31113493 0.19468196 0.5274099 0.07250266 0.41261303 -0.7135272 0.5291391 0.502404 -0.054723196 -0.26304752 0.17651136 -0.39272535 0.20476538 -0.322283 -0.36982688 0.07087203 -0.111159936 -0.14264283 -0.013533209 0.48089507 0.8143014 0.5373278 -0.0031864955 -0.11202867 -0.105061844 0.05021618 -0.3386417 -0.17578876 0.043922115 -0.06664417 -0.42295462 -0.11365787 0.004202127 0.05532982 -0.07223945 -0.23903014 0.47619346 0.2400219 0.14485958 0.20747265 -0.24769743 -0.52116495 0.24620111 -0.43158194 -0.40536124 -0.0076102293 0.79227996 -0.062441498 0.35072517 -0.19916348 -0.10667491 -0.0069640554 0.426637 -0.033856757 0.29815903 0.010550353 -0.49304196 0.5221678 0.108553536 -0.65025306 0.0627973 -0.5953061 0.2591981
43 0.6444345 -0.4290771 0.13038376 0.25977182 0.02019658 -0.23891729 0.2566078 -0.23662996 0.14640734 0.42135063 -0.43784654 -0.14935777 0.02854943 0.122534014 0.37061426 0.18882605 -0.637597 0.15278675 -0.069833085 -0.097967066 0.21667948 0.4173446 0.68619275 0.38825488 -0.07956602 -0.41793433 0.41150612 -0.697399 -0.49367526 0.7031756 0.23009099 0.32927266 0.20136787 0.1697152 0.17518283 0.14589241 0.4681065 0.2642685 0.3534945 0.5792213 0.3983794 0.03445745 0.4746262 -0.006009529 0.1674983 0.57463723 0.2236385 -0.28787267 -0.16001843 0.4551467 0.37849578 0.058767114 -0.06736791 -0.030185577 0.012051133 0.46187717 0.32412052 0.18717062 -0.0023258284 0.24608916 0.41086832 -0.5350984 0.016068151 -0.0042971945 0.34859762 -0.2806437 0.46542656 -0.013580983 -0.08035012 -0.26340815 -0.18846059 -0.31365964 -0.22293119 -0.037489742 -0.36352742 0.25230566 0.042103067 0.13741052 -0.45501485 -0.11640552 0.1860767 0.31758597 0.46161485 -0.47506565 -0.5751429 0.09895247 0.10998591 -0.1284371 -0.09308026 -0.5242013 -0.047530524 -0.078593045 -0.18773223 0.52447826 -0.12769435 0.24467991 -0.3031754 -0.73553103 -0.16032138 -0.0535816 0.019072674 -0.2574769 0.5094922 0.0030527827 -0.27588782 -0.53469056 0.4358387 -0.34689495 0.23976348 -0.16469596 -0.093194604 0.32281494 -0.35342708 0.07260422 -0.19553445 -0.26197067 -0.09941672 -0.007567634 -0.4053219 0.2826287 0.07330547 -0.28281227 0.8258804 -0.3408654 0.3620915 -0.58623445 -0.10619892 -0.62397414 -0.25355786 0.33079427 0.5563711 -0.78685087 0.30778867 0.4973881 -0.1158052 -0.045680225 -0.23304962 0.6961211 0.22136082 -0.7286507 -0.10782289 -0.15259373 0.54112005 -0.17290094 0.0051167454 -0.014484788 -0.12820467 0.43942544 -0.076000184 0.3598555 0.096021615 0.16298121 0.33512774 0.12603758 -0.03146948 -0.16029614 -0.1792804 0.26649386 -0.1607932 0.2773281 -0.3142785 -0.16598764 0.25577697 0.13115165 0.12019896 0.55483884 0.21041924 -0.7151191 0.19841951 0.47824255 -0.098756716 -0.41605031 0.15463905 0.14900094 0.7597657 0.27135012 -0.58694184 -0.07212475 -0.056787875 -0.016194768 0.47865355 0.46566546 -0.04920473 0.54350257 -0.20591171 -0.6648912 -0.09059752 0.12533124 -0.105093665 -0.11209453 -0.3512141 0.45785484 0.58907086 -0.29238904 -0.18998589 -0.31684995 -0.27838928 0.28225338 -0.28610927 0.39780244 0.2182176 -0.38652465 -0.3247473 0.061597805 -0.50819725 0.16372268 0.0014621757 -0.26792645 0.46494403 -0.2633216 0.22235894 -0.055045612 0.18936846 0.6030836 0.26473823 -0.0030408278 -0.16508582 0.39458054 0.1567344 -0.3291749 -0.15358037 0.1588464 -0.42082784 0.0030313628 0.12863782 0.3358004 0.5217732 0.4878439 0.124735855 0.27767736 0.22576153 0.10530034 0.041198477 0.051392287 -0.24502128 0.29174644 -0.2530753 0.30470875 0.3883567 0.24991143 -0.6300883 -0.06422325 -0.5862975 -0.6120076 -0.010241376 0.2812792 0.108329095 -0.08725561 -0.14405 -0.43590042 0.3678066 0.033616796 -0.23719297 0.8200924 -0.7927072 -0.13621838
